{"learner":{"attributes":{"scikit_learn":"{\"_estimator_type\": \"classifier\"}"},"feature_names":[],"feature_types":[],"gradient_booster":{"model":{"gbtree_model_param":{"num_parallel_tree":"1","num_trees":"100"},"iteration_indptr":[0,1,2,3,4,5,6,7,8,9,10,11,12,13,14,15,16,17,18,19,20,21,22,23,24,25,26,27,28,29,30,31,32,33,34,35,36,37,38,39,40,41,42,43,44,45,46,47,48,49,50,51,52,53,54,55,56,57,58,59,60,61,62,63,64,65,66,67,68,69,70,71,72,73,74,75,76,77,78,79,80,81,82,83,84,85,86,87,88,89,90,91,92,93,94,95,96,97,98,99,100],"tree_info":[0,0,0,0,0,0,0,0,0,0,0,0,0,0,0,0,0,0,0,0,0,0,0,0,0,0,0,0,0,0,0,0,0,0,0,0,0,0,0,0,0,0,0,0,0,0,0,0,0,0,0,0,0,0,0,0,0,0,0,0,0,0,0,0,0,0,0,0,0,0,0,0,0,0,0,0,0,0,0,0,0,0,0,0,0,0,0,0,0,0,0,0,0,0,0,0,0,0,0,0],"trees":[{"base_weights":[-1.3722096E-1,-5.880505E-1,1.3083729E0,1.7223716E-1,-7.0566744E-1,6.8497485E-1,2.0637164E0,4.6689862E-1,-9.563956E-3,-4.188154E-1,-7.916912E-1,5.3298634E-1,1.0692017E0,1.743977E0,2.64123E0,3.6035144E-1,2.1616344E0,-5.0101566E-1,2.4458872E-1,5.6130765E-4,-4.6899244E-1,-5.292003E-1,-8.660147E-1,6.674118E-1,2.5326952E-1,1.1943034E0,4.2185625E-1,1.7790098E0,5.464421E-1,2.691321E0,1.25909E-1,1.6901547E-1,8.6371267E-1,2.8125307E-1,7.168396E-1,-7.162967E-1,-2.2097619E-1,5.683576E-1,4.8074815E-2,-4.2419946E-1,2.7014396E-1,-4.2036808E-1,-8.7379277E-1,-6.765464E-1,-2.681992E-1,-4.3906745E-1,-8.909043E-1,7.965738E-1,1.8882693E-1,5.4743428E-2,1.0251207E0,1.0392373E0,1.7873822E0,-5.826784E-1,7.283449E-1,1.5700303E0,1.9870087E0,8.6309916E-1,-2.3846847E-1,2.7140863E0,8.677835E-2,-1.6937809E-1,2.954993E-1,7.0690356E-2,-2.3775719E-1,-5.979285E-2,3.2154197E-1,-2.4224143E-1,1.1034604E-1,-1.4521348E-1,6.5757774E-2,1.2973446E-1,3.834871E-1,-3.149189E-2,1.3435112E-1,1.4666694E-2,-2.4319659E-1,1.9548447E-1,-8.471769E-2,-8.664965E-2,-1.5559226E-1,-1.09156445E-1,-2.8075743E-1,-2.0580767E-1,2.4359171E-1,-2.558157E-2,-1.5315436E-1,-1.5374544E-1,1.9194959E-1,-2.3158929E-1,-2.8261164E-1,2.6244807E-1,5.954958E-2,9.759893E-2,-1.5620013E-1,-9.117251E-2,8.4055625E-2,3.9050338E-1,-1.8717006E-1,3.58722E-1,8.213654E-2,6.660366E-1,2.4539916E-1,2.7484637E-2,-2.6149213E-1,4.8947188E-1,1.4712544E-1,3.7302083E-1,5.3474313E-1,7.1763957E-1,5.51516E-1,1.9868223E-2,4.1526377E-1,8.170161E-1,2.1482539E-1],"categories":[],"categories_nodes":[],"categories_segments":[],"categories_sizes":[],"default_left":[0,0,0,0,0,0,0,0,0,0,0,0,0,0,0,0,0,0,0,0,0,0,0,0,0,0,0,0,0,0,0,0,0,0,0,0,0,0,0,0,0,0,0,0,0,0,0,0,0,0,0,0,0,0,0,0,0,0,0,0,0,0,0,0,0,0,0,0,0,0,0,0,0,0,0,0,0,0,0,0,0,0,0,0,0,0,0,0,0,0,0,0,0,0,0,0,0,0,0,0,0,0,0,0,0,0,0,0,0,0,0,0,0,0,0],"id":0,"left_children":[1,3,5,7,9,11,13,15,17,19,21,23,25,27,29,31,33,35,37,39,41,43,45,47,49,51,53,55,57,59,61,63,65,-1,-1,67,69,71,73,75,77,79,81,83,85,87,89,91,93,95,97,99,101,103,105,107,109,111,-1,113,-1,-1,-1,-1,-1,-1,-1,-1,-1,-1,-1,-1,-1,-1,-1,-1,-1,-1,-1,-1,-1,-1,-1,-1,-1,-1,-1,-1,-1,-1,-1,-1,-1,-1,-1,-1,-1,-1,-1,-1,-1,-1,-1,-1,-1,-1,-1,-1,-1,-1,-1,-1,-1,-1,-1],"loss_changes":[2.9132556E3,3.0480737E2,4.9898828E2,2.4501347E1,7.248657E1,3.3516785E1,8.402771E1,3.0731346E1,3.556821E1,1.437104E1,4.380896E1,1.5632523E1,1.2814178E1,1.2112854E1,2.0967773E1,1.5782259E1,5.828285E-1,5.693241E0,1.1916565E1,8.585503E0,1.163829E1,1.9173126E1,1.8383667E1,1.7357162E1,2.1092594E1,1.0766937E1,9.10041E0,1.003302E1,5.0644274E0,8.279053E0,3.137126E0,7.9424973E0,1.0235943E1,0E0,0E0,5.6770077E0,5.158412E0,6.279579E0,7.2611437E0,5.3619003E0,9.851412E0,6.913986E0,1.7003059E0,5.086548E0,8.079445E0,8.193043E0,9.420288E0,1.025E1,6.12587E0,9.046898E0,1.36635685E1,1.2994949E1,9.536659E0,1.4717195E0,3.9355574E0,8.587982E0,4.5064087E0,3.5704718E0,0E0,1.098877E0,0E0,0E0,0E0,0E0,0E0,0E0,0E0,0E0,0E0,0E0,0E0,0E0,0E0,0E0,0E0,0E0,0E0,0E0,0E0,0E0,0E0,0E0,0E0,0E0,0E0,0E0,0E0,0E0,0E0,0E0,0E0,0E0,0E0,0E0,0E0,0E0,0E0,0E0,0E0,0E0,0E0,0E0,0E0,0E0,0E0,0E0,0E0,0E0,0E0,0E0,0E0,0E0,0E0,0E0,0E0],"parents":[2147483647,0,0,1,1,2,2,3,3,4,4,5,5,6,6,7,7,8,8,9,9,10,10,11,11,12,12,13,13,14,14,15,15,16,16,17,17,18,18,19,19,20,20,21,21,22,22,23,23,24,24,25,25,26,26,27,27,28,28,29,29,30,30,31,31,32,32,35,35,36,36,37,37,38,38,39,39,40,40,41,41,42,42,43,43,44,44,45,45,46,46,47,47,48,48,49,49,50,50,51,51,52,52,53,53,54,54,55,55,56,56,57,57,59,59],"right_children":[2,4,6,8,10,12,14,16,18,20,22,24,26,28,30,32,34,36,38,40,42,44,46,48,50,52,54,56,58,60,62,64,66,-1,-1,68,70,72,74,76,78,80,82,84,86,88,90,92,94,96,98,100,102,104,106,108,110,112,-1,114,-1,-1,-1,-1,-1,-1,-1,-1,-1,-1,-1,-1,-1,-1,-1,-1,-1,-1,-1,-1,-1,-1,-1,-1,-1,-1,-1,-1,-1,-1,-1,-1,-1,-1,-1,-1,-1,-1,-1,-1,-1,-1,-1,-1,-1,-1,-1,-1,-1,-1,-1,-1,-1,-1,-1],"split_conditions":[3.554469E-1,-6.9878036E-1,1.2039174E0,-7.1008825E-1,-7.5135034E-1,8.6452913E-1,2.222082E0,2.0085704E0,-1.1717999E0,-2.9572213E-1,-6.323452E-1,-1.4873995E-1,-7.121778E-2,2.6891083E-1,3.9253983E-1,1.0213509E0,2.225543E0,-7.048242E-1,-2.8890654E-1,-7.035881E-1,-5.6212507E-2,-6.6271764E-1,-2.948487E-1,-2.1183257E-1,1.6396316E0,1.9835527E-1,-3.1223798E-1,-2.2790693E-1,4.9748573E-1,5.033157E-1,8.152206E-1,-3.397681E-1,-5.9510183E-1,2.8125307E-1,7.168396E-1,-2.6299652E-1,-2.858443E-1,1.3576523E0,-4.9302354E-1,-6.323452E-1,-2.3441282E-1,-9.0549827E-1,-3.136125E-1,8.409299E-1,-6.681421E-1,1.8575281E-1,-1.347586E-1,-1.1611698E-1,1.1754988E0,-1.9535887E-1,6.8294346E-1,-1.5480961E-1,1.0342232E0,-2.1365555E-1,4.275586E-2,1.5433055E0,-3.351192E-1,1.5433055E0,-2.3846847E-1,1.0603848E0,8.677835E-2,-1.6937809E-1,2.954993E-1,7.0690356E-2,-2.3775719E-1,-5.979285E-2,3.2154197E-1,-2.4224143E-1,1.1034604E-1,-1.4521348E-1,6.5757774E-2,1.2973446E-1,3.834871E-1,-3.149189E-2,1.3435112E-1,1.4666694E-2,-2.4319659E-1,1.9548447E-1,-8.471769E-2,-8.664965E-2,-1.5559226E-1,-1.09156445E-1,-2.8075743E-1,-2.0580767E-1,2.4359171E-1,-2.558157E-2,-1.5315436E-1,-1.5374544E-1,1.9194959E-1,-2.3158929E-1,-2.8261164E-1,2.6244807E-1,5.954958E-2,9.759893E-2,-1.5620013E-1,-9.117251E-2,8.4055625E-2,3.9050338E-1,-1.8717006E-1,3.58722E-1,8.213654E-2,6.660366E-1,2.4539916E-1,2.7484637E-2,-2.6149213E-1,4.8947188E-1,1.4712544E-1,3.7302083E-1,5.3474313E-1,7.1763957E-1,5.51516E-1,1.9868223E-2,4.1526377E-1,8.170161E-1,2.1482539E-1],"split_indices":[1,0,1,0,2,1,1,3,1,6,0,4,4,5,6,2,3,0,2,3,5,1,4,2,0,0,8,6,8,4,3,4,3,0,0,7,9,3,1,0,4,2,8,7,0,1,2,7,2,5,7,6,1,0,0,1,4,1,0,8,0,0,0,0,0,0,0,0,0,0,0,0,0,0,0,0,0,0,0,0,0,0,0,0,0,0,0,0,0,0,0,0,0,0,0,0,0,0,0,0,0,0,0,0,0,0,0,0,0,0,0,0,0,0,0],"split_type":[0,0,0,0,0,0,0,0,0,0,0,0,0,0,0,0,0,0,0,0,0,0,0,0,0,0,0,0,0,0,0,0,0,0,0,0,0,0,0,0,0,0,0,0,0,0,0,0,0,0,0,0,0,0,0,0,0,0,0,0,0,0,0,0,0,0,0,0,0,0,0,0,0,0,0,0,0,0,0,0,0,0,0,0,0,0,0,0,0,0,0,0,0,0,0,0,0,0,0,0,0,0,0,0,0,0,0,0,0,0,0,0,0,0,0],"sum_hessian":[4.4679473E3,3.4062512E3,1.0616959E3,4.5628912E2,2.9499622E3,5.8269476E2,4.790012E2,1.7350528E2,2.827838E2,6.819205E2,2.2680417E3,4.1924237E2,1.6345241E2,3.1089465E2,1.6810652E2,1.6438322E2,9.122059E0,9.606087E1,1.8672296E2,7.297647E1,6.08944E2,5.0227173E2,1.76577E3,2.8222534E2,1.3701704E2,1.3627238E2,2.7180012E1,3.0158643E2,9.308224E0,1.6475555E2,3.3509605E0,1.2007608E2,4.4307144E1,2.2339735E0,6.8880854E0,5.3429203E1,4.2631664E1,6.9811676E1,1.16911285E2,2.8110834E1,4.486564E1,5.454619E2,6.3482082E1,3.2001672E2,1.8225502E2,9.829484E1,1.6674751E3,2.2172188E2,6.0503452E1,1.09837036E2,2.7180012E1,1.10209366E2,2.6063026E1,6.1434274E0,2.1036585E1,1.5470267E2,1.4688376E2,7.8189077E0,1.4893157E0,1.6308008E2,1.6754802E0,2.0478091E0,1.3031512E0,1.1300183E2,7.0742497E0,7.260414E0,3.704673E1,4.951975E1,3.9094539E0,2.662152E1,1.6010145E1,5.9944958E1,9.866716E0,8.507716E1,3.1834124E1,1.3031513E1,1.5079322E1,2.6435354E1,1.8430283E1,2.3493956E2,3.1052234E2,7.6327434E0,5.5849342E1,3.185274E2,1.4893157E0,1.0462443E2,7.7630585E1,9.252374E1,5.7710986E0,5.0618118E2,1.161294E3,1.9565886E2,2.6063026E1,5.119523E1,9.308224E0,4.2259335E1,6.7577705E1,2.3456722E1,3.7232895E0,9.1034424E1,1.917494E1,1.712713E1,8.935894E0,2.0478091E0,4.0956182E0,3.1647959E0,1.7871788E1,6.3668247E1,9.1034424E1,3.537125E1,1.1151252E2,3.5371249E0,4.2817826E0,1.6196309E2,1.1169868E0],"tree_param":{"num_deleted":"0","num_feature":"10","num_nodes":"115","size_leaf_vector":"1"}},{"base_weights":[-1.19957164E-1,-4.6672422E-1,7.4622214E-1,-1.04474284E-1,-6.322872E-1,4.261214E-1,1.0850232E0,1.2704612E-1,-3.5850063E-1,-3.69702E-1,-7.150965E-1,6.8899435E-1,3.418001E-1,9.479385E-1,1.3183308E0,-1.3292624E-1,2.441992E-1,-5.6628984E-1,-1.936832E-1,-3.2151327E-1,-7.536518E-1,-3.66801E-1,-7.4802333E-1,1.4637296E0,6.0499793E-1,1.3834456E-2,4.3916097E-1,1.0032802E0,6.766184E-1,1.3365952E0,1.071191E-1,2.1473211E-1,-3.9786842E-1,2.9253384E-1,-3.9732677E-1,1.8830766E-1,-5.794162E-1,6.742402E-1,-2.8674147E-1,2.233436E-1,-3.4464693E-1,-8.4570426E-1,-4.4706738E-1,1.4895782E-1,-4.6088272E-1,-7.737052E-1,-3.9691064E-1,1.844272E0,2.2243658E-1,6.401526E-1,-6.4914423E-1,4.4023508E-1,-2.3541301E-1,1.7341476E-2,5.938228E-1,9.5968294E-1,1.6843525E0,-3.833661E-1,9.026088E-1,1.395069E0,1.0045524E0,-2.0824279E-1,6.273107E-1,-1.1519254E-1,1.7504595E-1,-1.4472856E-1,1.7360008E-1,7.7706784E-2,2.8951323E-1,-2.4860545E-1,1.3116068E-2,-1.62471E-1,-2.9914445E-1,4.5014337E-1,-7.6093E-2,1.0834407E-2,-1.284513E-1,2.8025068E-3,3.897624E-1,-1.05362915E-1,3.3356392E-1,-2.6458877E-1,5.2832227E-2,1.7575991E-1,-1.7616332E-1,1.5443693E-1,-1.3961215E-1,-1.5047128E-1,5.666939E-2,-2.1600953E-1,-2.798556E-1,-4.0294733E-2,-1.6806887E-1,1.2754999E-1,7.0314556E-1,3.1482205E-1,-2.6053986E-1,2.2367498E-1,6.610895E-2,-2.97017E-1,6.4163014E-2,2.0144215E-1,-1.367104E-1,1.02259524E-1,-1.1050157E-1,-6.516124E-2,1.16272874E-1,8.668776E-3,2.2067085E-1,2.9813147E-1,-6.754716E-2,5.564414E-2,5.469698E-1,-2.089976E-1,7.8484714E-2,2.8578904E-1,-1.4080983E-1,4.2246982E-1,-4.9239364E-2,4.5579442E-1,1.4933103E-1,5.9998255E-2,2.3131548E-1],"categories":[],"categories_nodes":[],"categories_segments":[],"categories_sizes":[],"default_left":[0,0,0,0,0,0,0,0,0,0,0,0,0,0,0,0,0,0,0,0,0,0,0,0,0,0,0,0,0,0,0,0,0,0,0,0,0,0,0,0,0,0,0,0,0,0,0,0,0,0,0,0,0,0,0,0,0,0,0,0,0,0,0,0,0,0,0,0,0,0,0,0,0,0,0,0,0,0,0,0,0,0,0,0,0,0,0,0,0,0,0,0,0,0,0,0,0,0,0,0,0,0,0,0,0,0,0,0,0,0,0,0,0,0,0,0,0,0,0,0,0,0,0],"id":1,"left_children":[1,3,5,7,9,11,13,15,17,19,21,23,25,27,29,31,33,35,37,39,41,43,45,47,49,51,53,55,57,59,61,63,65,67,69,-1,71,73,75,77,79,81,83,85,87,89,91,93,95,97,99,101,103,105,107,109,111,113,115,117,119,-1,121,-1,-1,-1,-1,-1,-1,-1,-1,-1,-1,-1,-1,-1,-1,-1,-1,-1,-1,-1,-1,-1,-1,-1,-1,-1,-1,-1,-1,-1,-1,-1,-1,-1,-1,-1,-1,-1,-1,-1,-1,-1,-1,-1,-1,-1,-1,-1,-1,-1,-1,-1,-1,-1,-1,-1,-1,-1,-1,-1,-1],"loss_changes":[1.3026941E3,1.8567365E2,1.3401312E2,5.7248657E1,4.594922E1,1.393351E1,1.7995789E1,1.5553109E1,1.5782402E1,9.223663E0,1.8243286E1,9.15303E0,1.5511337E1,5.0659485E0,4.7269897E0,1.4726525E1,1.1020052E1,3.572548E0,2.1216913E1,5.828556E0,1.2110195E0,6.9311066E0,1.2986572E1,6.384495E0,6.626671E0,1.2036083E1,2.443438E1,7.757721E0,1.6608524E1,2.8077698E0,2.2517107E0,1.5544754E1,7.7571144E0,7.1326866E0,4.80424E0,0E0,2.669876E0,1.9933859E1,1.0782101E1,4.4065313E0,4.5784073E0,1.7181892E0,2.533355E0,5.3128586E0,3.2634335E0,1.1054199E1,4.3222275E0,6.7108994E0,4.982107E0,5.923012E0,1.4879779E0,8.958997E0,5.6032014E0,8.902882E0,2.193071E1,1.2301666E1,3.339859E0,2.734838E0,4.3078995E0,3.9617004E0,8.643929E0,0E0,4.034984E-2,0E0,0E0,0E0,0E0,0E0,0E0,0E0,0E0,0E0,0E0,0E0,0E0,0E0,0E0,0E0,0E0,0E0,0E0,0E0,0E0,0E0,0E0,0E0,0E0,0E0,0E0,0E0,0E0,0E0,0E0,0E0,0E0,0E0,0E0,0E0,0E0,0E0,0E0,0E0,0E0,0E0,0E0,0E0,0E0,0E0,0E0,0E0,0E0,0E0,0E0,0E0,0E0,0E0,0E0,0E0,0E0,0E0,0E0,0E0,0E0],"parents":[2147483647,0,0,1,1,2,2,3,3,4,4,5,5,6,6,7,7,8,8,9,9,10,10,11,11,12,12,13,13,14,14,15,15,16,16,17,17,18,18,19,19,20,20,21,21,22,22,23,23,24,24,25,25,26,26,27,27,28,28,29,29,30,30,31,31,32,32,33,33,34,34,36,36,37,37,38,38,39,39,40,40,41,41,42,42,43,43,44,44,45,45,46,46,47,47,48,48,49,49,50,50,51,51,52,52,53,53,54,54,55,55,56,56,57,57,58,58,59,59,60,60,62,62],"right_children":[2,4,6,8,10,12,14,16,18,20,22,24,26,28,30,32,34,36,38,40,42,44,46,48,50,52,54,56,58,60,62,64,66,68,70,-1,72,74,76,78,80,82,84,86,88,90,92,94,96,98,100,102,104,106,108,110,112,114,116,118,120,-1,122,-1,-1,-1,-1,-1,-1,-1,-1,-1,-1,-1,-1,-1,-1,-1,-1,-1,-1,-1,-1,-1,-1,-1,-1,-1,-1,-1,-1,-1,-1,-1,-1,-1,-1,-1,-1,-1,-1,-1,-1,-1,-1,-1,-1,-1,-1,-1,-1,-1,-1,-1,-1,-1,-1,-1,-1,-1,-1,-1,-1],"split_conditions":[3.554469E-1,-2.5136393E-1,1.2039174E0,-6.892798E-1,-6.7427635E-1,-3.4145862E-1,2.222082E0,-1.341494E0,-4.9302354E-1,-5.6212507E-2,-3.077434E-1,-2.5264934E-1,-3.0837622E-1,-6.602133E-2,3.9253983E-1,-7.1008825E-1,-2.2507977E-1,-1.1675497E0,-2.559479E-1,-1.1675497E0,9.8162726E-2,-8.120745E-1,2.4064946E0,-2.1595606E-1,3.940384E-1,-2.1441968E-1,-2.0490728E-1,1.2222699E0,-8.120745E-1,3.2402463E0,-5.2670117E-2,-2.696428E-1,-1.8537645E-1,2.225543E0,-2.4830915E-1,1.8830766E-1,-2.6448396E-1,-3.0301976E-1,-5.8438146E-1,8.152206E-1,-6.602133E-2,1.1888697E0,1.2974167E-1,-2.4095526E-1,-1.9229395E-2,1.0213509E0,1.5663335E-1,-6.9878036E-1,1.6430256E-1,-5.768464E-2,-2.8687766E-2,-2.1183257E-1,-2.512576E-1,6.9483507E-1,-3.077434E-1,1.5757203E-1,-2.964037E-1,9.456556E-2,6.323197E-1,1.3894506E0,-5.8066666E-1,-2.0824279E-1,4.40344E-1,-1.1519254E-1,1.7504595E-1,-1.4472856E-1,1.7360008E-1,7.7706784E-2,2.8951323E-1,-2.4860545E-1,1.3116068E-2,-1.62471E-1,-2.9914445E-1,4.5014337E-1,-7.6093E-2,1.0834407E-2,-1.284513E-1,2.8025068E-3,3.897624E-1,-1.05362915E-1,3.3356392E-1,-2.6458877E-1,5.2832227E-2,1.7575991E-1,-1.7616332E-1,1.5443693E-1,-1.3961215E-1,-1.5047128E-1,5.666939E-2,-2.1600953E-1,-2.798556E-1,-4.0294733E-2,-1.6806887E-1,1.2754999E-1,7.0314556E-1,3.1482205E-1,-2.6053986E-1,2.2367498E-1,6.610895E-2,-2.97017E-1,6.4163014E-2,2.0144215E-1,-1.367104E-1,1.02259524E-1,-1.1050157E-1,-6.516124E-2,1.16272874E-1,8.668776E-3,2.2067085E-1,2.9813147E-1,-6.754716E-2,5.564414E-2,5.469698E-1,-2.089976E-1,7.8484714E-2,2.8578904E-1,-1.4080983E-1,4.2246982E-1,-4.9239364E-2,4.5579442E-1,1.4933103E-1,5.9998255E-2,2.3131548E-1],"split_indices":[1,6,1,0,2,4,1,1,1,5,7,5,8,5,6,0,7,2,5,2,6,3,0,8,5,7,5,0,3,1,3,3,5,3,5,0,6,7,0,3,5,8,6,9,0,2,9,0,3,2,0,2,4,1,7,6,6,5,8,9,0,0,4,0,0,0,0,0,0,0,0,0,0,0,0,0,0,0,0,0,0,0,0,0,0,0,0,0,0,0,0,0,0,0,0,0,0,0,0,0,0,0,0,0,0,0,0,0,0,0,0,0,0,0,0,0,0,0,0,0,0,0,0],"split_type":[0,0,0,0,0,0,0,0,0,0,0,0,0,0,0,0,0,0,0,0,0,0,0,0,0,0,0,0,0,0,0,0,0,0,0,0,0,0,0,0,0,0,0,0,0,0,0,0,0,0,0,0,0,0,0,0,0,0,0,0,0,0,0,0,0,0,0,0,0,0,0,0,0,0,0,0,0,0,0,0,0,0,0,0,0,0,0,0,0,0,0,0,0,0,0,0,0,0,0,0,0,0,0,0,0,0,0,0,0,0,0,0,0,0,0,0,0,0,0,0,0,0,0],"sum_hessian":[4.334914E3,3.0959426E3,1.2389714E3,9.7163885E2,2.1243037E3,6.382283E2,6.0074316E2,5.0859952E2,4.6303934E2,5.106178E2,1.6136859E3,1.5326173E2,4.8496655E2,3.815932E2,2.1915E2,1.5795334E2,3.5064618E2,2.0374161E2,2.5929776E2,4.5531018E2,5.5307636E1,1.4042545E2,1.4732605E3,1.3384504E1,1.3987723E2,1.1127444E2,3.736921E2,3.1470447E2,6.688872E1,2.1579245E2,3.3575475E0,6.839484E1,8.95585E1,3.2658426E2,2.4061918E1,1.7064136E0,2.0203519E2,2.4504747E1,2.34793E2,1.8191822E1,4.3711835E2,4.1183697E1,1.41239395E1,2.1573824E1,1.18851616E2,1.3717235E3,1.0153702E2,9.872218E0,3.5122867E0,1.3653949E2,3.3377452E0,4.0766613E1,7.050782E1,1.00554695E2,2.7313742E2,2.980355E2,1.6668976E1,1.1632288E1,5.5256428E1,1.8075873E2,3.503371E1,1.1900663E0,2.1674812E0,2.6053411E1,4.2341423E1,8.288713E1,6.671375E0,3.1240237E2,1.4181885E1,1.17202425E1,1.2341676E1,1.873572E2,1.4678E1,1.2635933E1,1.1868814E1,7.1748886E1,1.6304411E2,1.6014946E1,2.1768756E0,4.359131E2,1.2052513E0,3.9904575E1,1.2791222E0,1.30738E0,1.281656E1,1.3623261E1,7.9505625E0,1.1206253E2,6.7890887E0,1.029905E3,3.418184E2,3.9633724E1,6.1903294E1,3.0523224E0,6.8198957E0,2.0194554E0,1.4928311E0,1.0851079E2,2.8028706E1,2.2870934E0,1.0506518E0,3.2602524E1,8.164088E0,1.292203E1,5.7585793E1,6.181066E1,3.8744034E1,5.5028194E1,2.1810922E2,2.898574E2,8.178121E0,1.6115668E0,1.5057409E1,7.7753696E0,3.8569186E0,5.360758E1,1.648847E0,1.7934145E2,1.4172808E0,1.638884E1,1.8644869E1,1.1475041E0,1.019977E0],"tree_param":{"num_deleted":"0","num_feature":"10","num_nodes":"123","size_leaf_vector":"1"}},{"base_weights":[-9.714728E-2,-3.6691067E-1,4.944012E-1,-8.111285E-2,-5.121793E-1,1.9903427E-1,6.633721E-1,1.2551053E-1,-2.3535429E-1,-2.615082E-1,-5.86426E-1,-1.4237182E-1,2.7480823E-1,5.723979E-1,9.0415746E-1,8.978736E-2,6.621587E-1,-4.817992E-1,-1.4381956E-1,-1.0558754E-1,-3.6741123E-1,-3.533418E-1,-6.3687855E-1,4.443245E-1,-4.2403716E-1,-1.6237953E-1,3.44472E-1,6.0962063E-1,3.374892E-1,9.4947803E-1,4.5988846E-1,-9.4246574E-2,1.7394291E-1,1.0674617E0,-2.0475785E-1,3.792513E-1,-5.271048E-1,1.1483286E-1,-2.6057625E-1,2.4229935E-1,-1.8228008E-1,-5.431772E-1,-2.6032946E-1,-7.64753E-2,-4.3540567E-1,-6.7434007E-1,-3.726471E-1,3.2429707E-1,1.1668847E0,1.8185195E-1,-5.99548E-1,7.227091E-2,-8.987521E-1,-1.6747023E-1,4.6714514E-1,5.526642E-1,8.687255E-1,-3.54894E-2,7.305619E-1,8.94232E-1,1.3205178E0,-2.6239023E-1,7.178416E-1,-9.0868115E-2,1.1744627E-1,6.967332E-2,-3.534029E-2,3.5368013E-1,-8.465609E-2,-2.681659E-1,9.351814E-2,2.515242E-1,-1.6355382E-1,-1.64838E-1,1.3491568E-1,6.6718765E-2,-1.3570966E-1,-1.6177715E-1,-4.78813E-2,-1.3633743E-1,2.3521037E-1,-8.766267E-2,6.886534E-2,-8.85859E-3,-2.0187466E-1,-8.471383E-2,3.824565E-1,-5.9450306E-2,2.5722313E-1,-1.3729578E-1,2.0695832E-1,-1.5834787E-1,-2.2552788E-1,2.67944E-1,-1.2613267E-1,2.0541407E-1,-5.8104653E-2,5.367595E-1,1.48182465E-2,9.8016374E-2,-2.2719108E-1,-4.283747E-2,-2.2819914E-1,2.2714818E-1,-5.1783998E-2,-3.6135843E-1,-1.2781695E-1,2.0915882E-1,-9.0821944E-2,-1.0532519E-2,1.830955E-1,1.7356259E-1,-1.4042348E-1,3.590265E-1,2.20881E-1,-5.5535633E-2,2.9108697E-1,-3.6811773E-2,2.6991454E-1,2.854005E-1,1.4759542E-1,4.2879322E-1,1.3155822E-1,1.7931783E-1,-1.7039894E-1,2.7711195E-1,-9.8268166E-2],"categories":[],"categories_nodes":[],"categories_segments":[],"categories_sizes":[],"default_left":[0,0,0,0,0,0,0,0,0,0,0,0,0,0,0,0,0,0,0,0,0,0,0,0,0,0,0,0,0,0,0,0,0,0,0,0,0,0,0,0,0,0,0,0,0,0,0,0,0,0,0,0,0,0,0,0,0,0,0,0,0,0,0,0,0,0,0,0,0,0,0,0,0,0,0,0,0,0,0,0,0,0,0,0,0,0,0,0,0,0,0,0,0,0,0,0,0,0,0,0,0,0,0,0,0,0,0,0,0,0,0,0,0,0,0,0,0,0,0,0,0,0,0,0,0,0,0],"id":2,"left_children":[1,3,5,7,9,11,13,15,17,19,21,23,25,27,29,31,33,35,37,39,41,43,45,47,49,51,53,55,57,59,61,63,65,67,69,71,73,75,77,79,81,83,85,87,89,91,93,95,97,99,101,103,105,107,109,111,113,115,117,119,121,123,125,-1,-1,-1,-1,-1,-1,-1,-1,-1,-1,-1,-1,-1,-1,-1,-1,-1,-1,-1,-1,-1,-1,-1,-1,-1,-1,-1,-1,-1,-1,-1,-1,-1,-1,-1,-1,-1,-1,-1,-1,-1,-1,-1,-1,-1,-1,-1,-1,-1,-1,-1,-1,-1,-1,-1,-1,-1,-1,-1,-1,-1,-1,-1,-1],"loss_changes":[6.603165E2,1.17938354E2,6.4552246E1,3.058746E1,3.490811E1,1.2277044E1,1.753241E1,7.809739E0,1.2323214E1,7.0992775E0,1.6856842E1,1.4496322E1,1.1857012E1,5.047348E0,4.0780945E0,5.994814E0,9.165052E0,5.9873276E0,1.2170061E1,4.7466927E0,4.696232E0,5.890396E0,1.1556152E1,2.099594E0,6.384142E0,9.384592E0,2.108797E1,7.154846E0,1.2401781E1,2.9707794E0,4.416929E0,1.2460338E1,4.5388365E0,2.9672337E0,3.4644473E0,3.8516796E0,3.3339653E0,7.7707663E0,7.716261E0,1.2535549E1,6.630988E0,6.403351E0,5.8317146E0,7.082149E0,5.344879E0,1.1439758E1,9.471716E0,4.965457E0,2.4744935E0,2.1551218E0,3.275694E0,7.1460185E0,1.3814583E0,7.8609247E0,1.9446804E1,1.1546417E1,3.0937042E0,6.8417196E0,6.049206E0,3.652298E0,1.6905365E0,2.1019287E0,3.9592438E0,0E0,0E0,0E0,0E0,0E0,0E0,0E0,0E0,0E0,0E0,0E0,0E0,0E0,0E0,0E0,0E0,0E0,0E0,0E0,0E0,0E0,0E0,0E0,0E0,0E0,0E0,0E0,0E0,0E0,0E0,0E0,0E0,0E0,0E0,0E0,0E0,0E0,0E0,0E0,0E0,0E0,0E0,0E0,0E0,0E0,0E0,0E0,0E0,0E0,0E0,0E0,0E0,0E0,0E0,0E0,0E0,0E0,0E0,0E0,0E0,0E0,0E0,0E0,0E0],"parents":[2147483647,0,0,1,1,2,2,3,3,4,4,5,5,6,6,7,7,8,8,9,9,10,10,11,11,12,12,13,13,14,14,15,15,16,16,17,17,18,18,19,19,20,20,21,21,22,22,23,23,24,24,25,25,26,26,27,27,28,28,29,29,30,30,31,31,32,32,33,33,34,34,35,35,36,36,37,37,38,38,39,39,40,40,41,41,42,42,43,43,44,44,45,45,46,46,47,47,48,48,49,49,50,50,51,51,52,52,53,53,54,54,55,55,56,56,57,57,58,58,59,59,60,60,61,61,62,62],"right_children":[2,4,6,8,10,12,14,16,18,20,22,24,26,28,30,32,34,36,38,40,42,44,46,48,50,52,54,56,58,60,62,64,66,68,70,72,74,76,78,80,82,84,86,88,90,92,94,96,98,100,102,104,106,108,110,112,114,116,118,120,122,124,126,-1,-1,-1,-1,-1,-1,-1,-1,-1,-1,-1,-1,-1,-1,-1,-1,-1,-1,-1,-1,-1,-1,-1,-1,-1,-1,-1,-1,-1,-1,-1,-1,-1,-1,-1,-1,-1,-1,-1,-1,-1,-1,-1,-1,-1,-1,-1,-1,-1,-1,-1,-1,-1,-1,-1,-1,-1,-1,-1,-1,-1,-1,-1,-1],"split_conditions":[3.554469E-1,-2.4994403E-1,8.6452913E-1,-7.0032424E-1,-7.5135034E-1,-2.858963E-1,2.222082E0,2.0085704E0,-8.324117E-1,-1.8537645E-1,-6.2970525E-1,-2.736205E-1,-3.077434E-1,-1.5491181E-2,2.1881266E-2,-1.341494E0,-2.5264934E-1,-1.1375335E0,-3.077434E-1,-2.7250978E-1,-3.4786165E-1,-1.347586E-1,1.8514596E0,1.371917E-2,-2.928758E-1,-1.2648012E-1,-3.0837622E-1,2.746756E-1,-1.6115646E-1,9.6463285E-2,8.201528E-2,1.0213509E0,-2.8140944E-1,-2.1221054E-1,-2.94913E-1,-6.5830165E-1,4.2676654E0,-5.6212507E-2,-8.120745E-1,-2.332053E-1,-2.6355043E-1,-3.067399E-1,1.6795737E0,1.249166E0,5.79237E-1,-1.347586E-1,-2.2587974E-1,-2.821464E-1,-5.4123396E-1,4.0475914E-1,-4.1610682E-1,-3.011109E-1,-1.827928E-2,-2.0581873E-1,-2.0490728E-1,7.889258E-2,-1.6097522E-1,2.7803776E-1,-2.5861835E-1,4.7494277E-1,8.2118616E-2,7.601956E-1,2.7311642E0,-9.0868115E-2,1.1744627E-1,6.967332E-2,-3.534029E-2,3.5368013E-1,-8.465609E-2,-2.681659E-1,9.351814E-2,2.515242E-1,-1.6355382E-1,-1.64838E-1,1.3491568E-1,6.6718765E-2,-1.3570966E-1,-1.6177715E-1,-4.78813E-2,-1.3633743E-1,2.3521037E-1,-8.766267E-2,6.886534E-2,-8.85859E-3,-2.0187466E-1,-8.471383E-2,3.824565E-1,-5.9450306E-2,2.5722313E-1,-1.3729578E-1,2.0695832E-1,-1.5834787E-1,-2.2552788E-1,2.67944E-1,-1.2613267E-1,2.0541407E-1,-5.8104653E-2,5.367595E-1,1.48182465E-2,9.8016374E-2,-2.2719108E-1,-4.283747E-2,-2.2819914E-1,2.2714818E-1,-5.1783998E-2,-3.6135843E-1,-1.2781695E-1,2.0915882E-1,-9.0821944E-2,-1.0532519E-2,1.830955E-1,1.7356259E-1,-1.4042348E-1,3.590265E-1,2.20881E-1,-5.5535633E-2,2.9108697E-1,-3.6811773E-2,2.6991454E-1,2.854005E-1,1.4759542E-1,4.2879322E-1,1.3155822E-1,1.7931783E-1,-1.7039894E-1,2.7711195E-1,-9.8268166E-2],"split_indices":[1,6,1,0,2,6,1,3,1,5,0,8,7,4,4,1,5,3,7,4,0,2,0,7,9,5,8,0,3,2,4,2,8,9,7,0,8,5,3,5,0,8,8,3,8,2,9,7,0,2,0,8,5,5,5,7,8,6,9,0,8,0,1,0,0,0,0,0,0,0,0,0,0,0,0,0,0,0,0,0,0,0,0,0,0,0,0,0,0,0,0,0,0,0,0,0,0,0,0,0,0,0,0,0,0,0,0,0,0,0,0,0,0,0,0,0,0,0,0,0,0,0,0,0,0,0,0],"split_type":[0,0,0,0,0,0,0,0,0,0,0,0,0,0,0,0,0,0,0,0,0,0,0,0,0,0,0,0,0,0,0,0,0,0,0,0,0,0,0,0,0,0,0,0,0,0,0,0,0,0,0,0,0,0,0,0,0,0,0,0,0,0,0,0,0,0,0,0,0,0,0,0,0,0,0,0,0,0,0,0,0,0,0,0,0,0,0,0,0,0,0,0,0,0,0,0,0,0,0,0,0,0,0,0,0,0,0,0,0,0,0,0,0,0,0,0,0,0,0,0,0,0,0,0,0,0,0],"sum_hessian":[4.1357524E3,2.840693E3,1.2950593E3,9.5783374E2,1.8828593E3,4.7206012E2,8.229992E2,4.0947852E2,5.483552E2,4.3128387E2,1.4515754E3,8.5582375E1,3.8647772E2,5.9976965E2,2.2322957E2,3.8501636E2,2.4462154E1,1.4735588E2,4.0099933E2,1.7525444E2,2.5602945E2,2.5971762E2,1.1918578E3,2.7572533E1,5.8009846E1,5.2936176E1,3.3354156E2,5.163549E2,8.341476E1,2.0153363E2,2.1695946E1,1.207772E2,2.6423914E2,1.6511381E1,7.950773E0,6.997364E0,1.4035852E2,1.2472067E2,2.7627866E2,3.1266472E1,1.4398796E2,9.538697E1,1.6064247E2,5.9822113E1,1.9989551E2,1.0425043E3,1.4935356E2,2.4887228E1,2.6853034E0,1.3021518E1,4.4988327E1,4.082792E1,1.2108255E1,6.4404045E1,2.691375E2,4.2587265E2,9.048223E1,4.326818E1,4.0146572E1,1.7838329E2,2.3150347E1,5.704875E0,1.599107E1,8.474947E1,3.6027725E1,2.2039902E2,4.384013E1,1.536853E1,1.1428508E0,3.0930758E0,4.857697E0,4.7373705E0,2.259993E0,1.376459E2,2.7126086E0,1.0535008E2,1.9370592E1,7.232423E1,2.0395442E2,1.3746893E1,1.7519579E1,1.1388063E2,3.0107328E1,1.9482231E1,7.590474E1,1.5917233E2,1.4701428E0,5.3622498E1,6.1996145E0,1.9660191E2,3.293596E0,3.6312323E2,6.79381E2,4.790705E0,1.4456287E2,1.4485879E1,1.040135E1,1.33871E0,1.3465935E0,1.1846283E1,1.1752348E0,1.2222979E1,3.276535E1,1.0202306E1,3.0625614E1,6.412163E0,5.696093E0,8.150503E0,5.625354E1,5.9869446E1,2.0926807E2,4.1576547E2,1.0107197E1,2.3715374E1,6.676686E1,3.837508E1,4.8931003E0,6.6874285E0,3.3459145E1,1.5501265E2,2.337063E1,2.0055914E1,3.0944335E0,1.2450006E0,4.459874E0,1.3457396E1,2.5336747E0],"tree_param":{"num_deleted":"0","num_feature":"10","num_nodes":"127","size_leaf_vector":"1"}},{"base_weights":[-7.675074E-2,-2.8456864E-1,3.4164354E-1,6.919682E-3,-3.851995E-1,1.7932625E-1,5.1751286E-1,1.4128877E-1,-1.6512753E-1,-1.7954391E-1,-4.6367624E-1,1.9786881E-1,-4.460793E-1,4.3994272E-1,6.623799E-1,9.09304E-1,1.0045968E-1,-4.353256E-1,-5.9501797E-2,-9.722824E-1,-1.6202104E-1,-2.109919E-1,-5.2234024E-1,1.8558955E-1,8.875974E-1,-9.228742E-1,-1.6108239E-1,5.5081636E-1,3.438266E-1,5.621302E-1,8.4226596E-1,1.3212483E0,-1.6609527E-1,1.47970095E-2,3.7074533E-1,-1.3784629E-1,-6.435865E-1,-9.8291285E-2,7.324667E-1,-8.5310735E-2,-3.0931616E-1,-1.271172E-1,-5.1945835E-1,-6.184727E-1,-8.9722335E-2,-5.4668605E-1,-2.2401275E-1,2.1885048E-1,-2.4798828E-1,1.2811346E0,2.0056504E-1,-5.97048E-2,-3.0475962E-1,8.686908E-1,-4.7910383E-1,3.0489397E-1,7.029138E-1,1.4061573E-1,4.58614E-1,7.0140797E-1,3.1673834E-1,9.3537223E-1,2.1892418E-1,2.1320745E-2,4.3485647E-1,-1.9626717E-1,2.5593004E-1,-2.8803319E-2,1.265363E-1,1.4524628E-1,-1.5837356E-1,-8.924955E-2,1.92536E-1,-1.0289287E-1,-2.5361696E-1,2.7601244E-3,-1.1472098E-1,5.8191925E-2,4.5373335E-1,-4.842375E-2,9.4416015E-2,-1.8175346E-1,1.493005E-1,-2.6309127E-1,-7.05275E-2,1.7429955E-3,-9.374615E-2,-1.3670348E-1,-2.0041652E-1,-2.6339786E-2,-1.7253643E-1,5.8961295E-2,1.9598612E-1,1.0061608E-2,-2.369218E-1,-1.5065975E-2,4.822152E-1,-2.8273842E-1,2.5137815E-1,5.522157E-2,3.275798E-1,-2.1899165E-1,6.98846E-2,3.782459E-2,1.9725491E-1,2.4297084E-1,8.22553E-2,1.11035846E-1,-9.8461725E-2,3.7548333E-2,1.781023E-1,2.1932098E-1,-1.3191442E-1,-2.2218992E-1,1.1276285E-1,3.8996106E-1,2.0110583E-1,-3.524594E-1,2.7278763E-1],"categories":[],"categories_nodes":[],"categories_segments":[],"categories_sizes":[],"default_left":[0,0,0,0,0,0,0,0,0,0,0,0,0,0,0,0,0,0,0,0,0,0,0,0,0,0,0,0,0,0,0,0,0,0,0,0,0,0,0,0,0,0,0,0,0,0,0,0,0,0,0,0,0,0,0,0,0,0,0,0,0,0,0,0,0,0,0,0,0,0,0,0,0,0,0,0,0,0,0,0,0,0,0,0,0,0,0,0,0,0,0,0,0,0,0,0,0,0,0,0,0,0,0,0,0,0,0,0,0,0,0,0,0,0,0,0,0,0,0],"id":3,"left_children":[1,3,5,7,9,11,13,15,17,19,21,23,25,27,29,31,33,35,37,39,41,43,45,47,49,51,53,55,57,59,61,63,65,67,69,71,73,75,77,-1,-1,79,81,83,85,87,89,91,93,95,97,-1,-1,99,101,103,105,107,109,111,113,115,117,-1,-1,-1,-1,-1,-1,-1,-1,-1,-1,-1,-1,-1,-1,-1,-1,-1,-1,-1,-1,-1,-1,-1,-1,-1,-1,-1,-1,-1,-1,-1,-1,-1,-1,-1,-1,-1,-1,-1,-1,-1,-1,-1,-1,-1,-1,-1,-1,-1,-1,-1,-1,-1,-1,-1,-1],"loss_changes":[3.4348373E2,7.7416916E1,3.7333878E1,1.5703765E1,3.1580109E1,8.012644E0,6.773926E0,1.1867807E1,8.476139E0,7.3922997E0,2.0930115E1,5.4619045E0,2.5668683E0,4.2060623E0,3.4448624E0,8.692955E0,8.405107E0,5.088537E0,6.6870537E0,1.7392063E-1,6.583006E0,1.324299E1,8.239227E0,9.485666E0,2.8134632E0,2.8683996E-1,4.909079E0,6.8873825E0,5.151043E0,4.6492043E0,4.1915054E0,2.1326885E0,3.6356242E0,1.2526996E1,9.160947E0,4.632643E0,2.675438E0,6.2996087E0,3.9792533E0,0E0,0E0,7.428161E0,4.4390078E0,5.8939247E0,4.440343E0,1.1444855E1,4.184863E0,5.7645893E0,7.2045817E0,3.1362867E0,4.6665277E0,0E0,0E0,3.480835E-1,2.1575975E0,4.603188E0,5.123741E0,8.960735E0,6.340681E0,3.3712006E0,3.619381E0,5.465523E0,1.1796778E1,0E0,0E0,0E0,0E0,0E0,0E0,0E0,0E0,0E0,0E0,0E0,0E0,0E0,0E0,0E0,0E0,0E0,0E0,0E0,0E0,0E0,0E0,0E0,0E0,0E0,0E0,0E0,0E0,0E0,0E0,0E0,0E0,0E0,0E0,0E0,0E0,0E0,0E0,0E0,0E0,0E0,0E0,0E0,0E0,0E0,0E0,0E0,0E0,0E0,0E0,0E0,0E0,0E0,0E0,0E0,0E0],"parents":[2147483647,0,0,1,1,2,2,3,3,4,4,5,5,6,6,7,7,8,8,9,9,10,10,11,11,12,12,13,13,14,14,15,15,16,16,17,17,18,18,19,19,20,20,21,21,22,22,23,23,24,24,25,25,26,26,27,27,28,28,29,29,30,30,31,31,32,32,33,33,34,34,35,35,36,36,37,37,38,38,41,41,42,42,43,43,44,44,45,45,46,46,47,47,48,48,49,49,50,50,53,53,54,54,55,55,56,56,57,57,58,58,59,59,60,60,61,61,62,62],"right_children":[2,4,6,8,10,12,14,16,18,20,22,24,26,28,30,32,34,36,38,40,42,44,46,48,50,52,54,56,58,60,62,64,66,68,70,72,74,76,78,-1,-1,80,82,84,86,88,90,92,94,96,98,-1,-1,100,102,104,106,108,110,112,114,116,118,-1,-1,-1,-1,-1,-1,-1,-1,-1,-1,-1,-1,-1,-1,-1,-1,-1,-1,-1,-1,-1,-1,-1,-1,-1,-1,-1,-1,-1,-1,-1,-1,-1,-1,-1,-1,-1,-1,-1,-1,-1,-1,-1,-1,-1,-1,-1,-1,-1,-1,-1,-1,-1,-1,-1,-1],"split_conditions":[3.554469E-1,-2.9702222E-1,1.2039174E0,-3.077434E-1,-7.5135034E-1,3.940384E-1,2.222082E0,-1.0596461E0,-2.4830915E-1,-1.1717999E0,-6.4351344E-1,3.3966043E0,-1.83033E-1,-1.9535887E-1,4.897616E-1,-2.964037E-1,-8.324117E-1,-2.858443E-1,2.1774604E0,-1.2460198E0,-8.216682E-2,-1.341494E0,2.4064946E0,1.00887686E-1,3.4052855E-1,-4.7716993E-1,4.0081464E-5,-2.821464E-1,-5.9510183E-1,-1.9252498E-1,3.5796347E0,-1.6808822E0,-2.4855183E-1,1.1754988E0,1.4067206E0,1.3296467E0,-2.4397431E-1,-1.8762843E-1,1.0321933E0,-8.5310735E-2,-3.0931616E-1,-6.76678E-2,-2.8687766E-2,-1.7289016E-1,6.35981E-1,3.2768518E-1,4.2940086E-1,-1.1559915E-2,1.2222699E0,1.5806249E-1,3.470457E-1,-5.97048E-2,-3.0475962E-1,-2.8828177E-1,3.9306018E-1,-2.2025456E-1,1.7129996E0,-2.1479078E-1,-2.5743708E-1,8.210923E-2,-1.0596461E0,-2.8207543E-1,4.088717E0,2.1320745E-2,4.3485647E-1,-1.9626717E-1,2.5593004E-1,-2.8803319E-2,1.265363E-1,1.4524628E-1,-1.5837356E-1,-8.924955E-2,1.92536E-1,-1.0289287E-1,-2.5361696E-1,2.7601244E-3,-1.1472098E-1,5.8191925E-2,4.5373335E-1,-4.842375E-2,9.4416015E-2,-1.8175346E-1,1.493005E-1,-2.6309127E-1,-7.05275E-2,1.7429955E-3,-9.374615E-2,-1.3670348E-1,-2.0041652E-1,-2.6339786E-2,-1.7253643E-1,5.8961295E-2,1.9598612E-1,1.0061608E-2,-2.369218E-1,-1.5065975E-2,4.822152E-1,-2.8273842E-1,2.5137815E-1,5.522157E-2,3.275798E-1,-2.1899165E-1,6.98846E-2,3.782459E-2,1.9725491E-1,2.4297084E-1,8.22553E-2,1.11035846E-1,-9.8461725E-2,3.7548333E-2,1.781023E-1,2.1932098E-1,-1.3191442E-1,-2.2218992E-1,1.1276285E-1,3.8996106E-1,2.0110583E-1,-3.524594E-1,2.7278763E-1],"split_indices":[1,4,1,7,2,5,1,2,5,1,0,0,8,5,3,6,1,9,2,3,5,1,0,9,8,0,8,7,3,7,1,1,8,2,2,2,7,9,3,0,0,7,0,4,2,2,6,9,0,5,6,0,0,6,9,9,1,4,9,5,2,9,1,0,0,0,0,0,0,0,0,0,0,0,0,0,0,0,0,0,0,0,0,0,0,0,0,0,0,0,0,0,0,0,0,0,0,0,0,0,0,0,0,0,0,0,0,0,0,0,0,0,0,0,0,0,0,0,0],"split_type":[0,0,0,0,0,0,0,0,0,0,0,0,0,0,0,0,0,0,0,0,0,0,0,0,0,0,0,0,0,0,0,0,0,0,0,0,0,0,0,0,0,0,0,0,0,0,0,0,0,0,0,0,0,0,0,0,0,0,0,0,0,0,0,0,0,0,0,0,0,0,0,0,0,0,0,0,0,0,0,0,0,0,0,0,0,0,0,0,0,0,0,0,0,0,0,0,0,0,0,0,0,0,0,0,0,0,0,0,0,0,0,0,0,0,0,0,0,0,0],"sum_hessian":[3.9482495E3,2.6381775E3,1.310072E3,6.7728326E2,1.9608942E3,6.823352E2,6.277368E2,3.803827E2,2.9690057E2,5.425029E2,1.4183912E3,6.6335126E2,1.8983995E1,4.114564E2,2.1628044E2,1.812735E1,3.6225534E2,8.256699E1,2.1433357E2,1.055394E1,5.31949E2,2.6811816E2,1.1502731E3,6.52995E2,1.0356221E1,6.264839E0,1.2719157E1,1.8886385E2,2.2259254E2,1.4153085E2,7.474959E1,1.2941388E1,5.1859612E0,2.7587573E2,8.63796E1,3.4684975E1,4.788202E1,2.0516096E2,9.172603E0,1.2902496E0,9.26369E0,4.8586026E2,4.608873E1,6.0552902E1,2.0756525E2,1.062715E3,8.7558174E1,6.069309E2,4.6064075E1,6.03474E0,4.3214808E0,1.0706763E0,5.194163E0,2.5926023E0,1.01265545E1,7.33197E1,1.1554414E2,8.1152084E1,1.4144046E2,8.910115E1,5.2429707E1,6.459995E1,1.0149638E1,1.3488867E0,1.1592502E1,3.7486825E0,1.4372785E0,2.1743936E2,5.8436367E1,7.710974E1,9.269862E0,2.9302797E1,5.3821764E0,2.0316984E1,2.7565033E1,1.4954814E2,5.5612835E1,6.165001E0,3.0076017E0,4.5145325E2,3.4407E1,4.2853462E1,3.2352688E0,3.539801E1,2.5154892E1,1.4594913E2,6.161612E1,6.100372E2,4.526778E2,6.398507E1,2.3573103E1,5.7866296E2,2.8267967E1,3.0929373E1,1.5134702E1,1.3542796E0,4.6804605E0,1.3756821E0,2.9457986E0,1.0861701E0,1.5064323E0,7.4696894E0,2.6568654E0,4.955056E1,2.3769142E1,9.1757164E1,2.3786976E1,5.462289E1,2.6529194E1,4.1329063E1,1.0011139E2,8.7194E1,1.9071491E0,2.1666496E0,5.0263058E1,2.5551947E1,3.9048004E1,3.1295571E0,7.020081E0],"tree_param":{"num_deleted":"0","num_feature":"10","num_nodes":"119","size_leaf_vector":"1"}},{"base_weights":[-5.95214E-2,-2.1774137E-1,2.4040124E-1,-1.0513821E-2,-3.1913874E-1,1.4463063E-1,4.288901E-1,1.0574193E-1,-1.08719476E-1,-2.0811446E-1,-4.2493942E-1,1.598584E-1,-2.8558967E-1,3.6224863E-1,6.6760784E-1,8.6528644E-2,4.24238E-1,-5.1507115E-1,-5.2429803E-2,-3.0105872E-2,-2.864813E-1,-1.4147335E-1,-4.6115163E-1,1.51553E-1,8.698323E-1,3.6870793E-2,-6.343624E-1,4.080273E-1,8.302766E-2,7.050162E-1,-2.4026522E-1,1.7803155E-2,4.5498958E-1,-6.92333E-1,-8.492379E-3,1.935381E-2,-3.112956E-1,1.9849557E-1,-1.2508957E-1,-2.9931426E-1,8.893123E-1,-2.647445E-1,1.5907355E-1,-5.248674E-1,-2.3782943E-1,1.6063602E-1,-8.9126945E-1,1.1725036E0,1.6093346E-1,-7.5598466E-1,2.3770507E-1,-9.6080106E-1,4.4139093E-1,6.792093E-1,3.3591974E-1,-1.03854306E-1,4.6695834E-1,1.0489696E0,6.1040366E-1,9.2643626E-2,-2.5662875E-1,5.223749E-2,-5.2575435E-2,2.3712821E-1,2.1089537E-2,-2.3236771E-1,-5.019212E-3,-2.2202617E-1,2.7008885E-1,-5.866998E-2,3.0617038E-2,-2.2970539E-2,-1.8134351E-1,-6.22676E-2,1.1889018E-1,2.255079E-2,-8.138161E-2,-7.4579984E-2,-1.4737597E-1,-1.8494375E-1,6.777297E-1,-9.187951E-2,2.2713362E-1,-6.0170304E-2,3.1551692E-1,-1.0362744E-1,-1.888915E-1,-1.4510943E-1,-3.722601E-2,1.6501759E-1,4.353845E-2,-3.5615814E-1,-1.0555473E-2,7.0025265E-2,4.4591942E-1,-1.1329066E-1,2.423691E-1,-2.681857E-1,-6.564571E-2,-2.8748056E-2,2.510979E-1,-3.4606373E-1,-1.0613241E-1,-1.320678E-1,2.8236362E-1,-1.5096045E-1,2.2430633E-1,4.3044627E-2,1.4096017E-1,1.042775E-1,-1.03626706E-1,-1.1559547E-1,2.4272066E-1,4.0691188E-1,6.270178E-2,9.925562E-2,2.560989E-1],"categories":[],"categories_nodes":[],"categories_segments":[],"categories_sizes":[],"default_left":[0,0,0,0,0,0,0,0,0,0,0,0,0,0,0,0,0,0,0,0,0,0,0,0,0,0,0,0,0,0,0,0,0,0,0,0,0,0,0,0,0,0,0,0,0,0,0,0,0,0,0,0,0,0,0,0,0,0,0,0,0,0,0,0,0,0,0,0,0,0,0,0,0,0,0,0,0,0,0,0,0,0,0,0,0,0,0,0,0,0,0,0,0,0,0,0,0,0,0,0,0,0,0,0,0,0,0,0,0,0,0,0,0,0,0,0,0],"id":4,"left_children":[1,3,5,7,9,11,13,15,17,19,21,23,25,27,29,31,-1,33,35,37,39,41,43,45,47,49,51,53,55,57,59,61,63,65,67,69,71,73,75,77,79,81,83,85,87,89,91,93,95,97,99,101,103,105,107,109,111,113,115,-1,-1,-1,-1,-1,-1,-1,-1,-1,-1,-1,-1,-1,-1,-1,-1,-1,-1,-1,-1,-1,-1,-1,-1,-1,-1,-1,-1,-1,-1,-1,-1,-1,-1,-1,-1,-1,-1,-1,-1,-1,-1,-1,-1,-1,-1,-1,-1,-1,-1,-1,-1,-1,-1,-1,-1,-1,-1],"loss_changes":[1.8018323E2,5.2223267E1,2.3610977E1,9.346491E0,1.9514984E1,5.7523785E0,6.7788925E0,9.302506E0,1.0122435E1,1.1378708E1,8.696747E0,4.8328075E0,3.4127712E0,4.4040565E0,3.400093E0,9.375435E0,0E0,4.831889E0,7.268885E0,5.4670134E0,8.816486E0,3.6778576E0,1.0638809E1,8.037313E0,1.8548827E0,2.8236473E0,5.527533E0,5.599636E0,3.647469E0,2.3411179E0,1.787641E0,9.486929E0,7.455968E0,2.2034016E0,1.0624309E1,5.475623E0,5.7971287E0,6.022483E0,5.221843E0,5.341511E0,1.45310135E1,3.2004042E0,9.574781E0,1.0831604E1,4.686968E0,4.9149475E0,1.8200355E0,1.5736427E0,1.7019186E0,7.082462E-2,2.880388E0,9.3323517E-1,2.207149E0,5.3658123E0,6.05217E0,3.8885596E0,5.1530747E0,4.460499E0,4.766405E0,0E0,0E0,0E0,0E0,0E0,0E0,0E0,0E0,0E0,0E0,0E0,0E0,0E0,0E0,0E0,0E0,0E0,0E0,0E0,0E0,0E0,0E0,0E0,0E0,0E0,0E0,0E0,0E0,0E0,0E0,0E0,0E0,0E0,0E0,0E0,0E0,0E0,0E0,0E0,0E0,0E0,0E0,0E0,0E0,0E0,0E0,0E0,0E0,0E0,0E0,0E0,0E0,0E0,0E0,0E0,0E0,0E0,0E0],"parents":[2147483647,0,0,1,1,2,2,3,3,4,4,5,5,6,6,7,7,8,8,9,9,10,10,11,11,12,12,13,13,14,14,15,15,17,17,18,18,19,19,20,20,21,21,22,22,23,23,24,24,25,25,26,26,27,27,28,28,29,29,30,30,31,31,32,32,33,33,34,34,35,35,36,36,37,37,38,38,39,39,40,40,41,41,42,42,43,43,44,44,45,45,46,46,47,47,48,48,49,49,50,50,51,51,52,52,53,53,54,54,55,55,56,56,57,57,58,58],"right_children":[2,4,6,8,10,12,14,16,18,20,22,24,26,28,30,32,-1,34,36,38,40,42,44,46,48,50,52,54,56,58,60,62,64,66,68,70,72,74,76,78,80,82,84,86,88,90,92,94,96,98,100,102,104,106,108,110,112,114,116,-1,-1,-1,-1,-1,-1,-1,-1,-1,-1,-1,-1,-1,-1,-1,-1,-1,-1,-1,-1,-1,-1,-1,-1,-1,-1,-1,-1,-1,-1,-1,-1,-1,-1,-1,-1,-1,-1,-1,-1,-1,-1,-1,-1,-1,-1,-1,-1,-1,-1,-1,-1,-1,-1,-1,-1,-1,-1],"split_conditions":[3.554469E-1,-2.6448396E-1,1.5433055E0,-3.397681E-1,-1.347586E-1,2.9200062E-1,9.2370695E-1,2.9849474E0,-1.341494E0,-1.9175652E-1,-3.077434E-1,3.3966043E0,2.1881266E-2,8.960905E-3,2.876461E0,-4.9302354E-1,4.24238E-1,-2.7976227E-1,5.589071E-1,-2.7250978E-1,1.6707579E0,-3.2332945E-1,1.4707853E0,2.2545342E0,3.4052855E-1,-3.077434E-1,4.274507E0,1.7129996E0,-5.2670117E-2,-1.0596461E0,-2.3050557E-1,-7.1008825E-1,-1.5363537E-1,-5.8066666E-1,4.0475914E-1,-8.120745E-1,-2.964037E-1,-2.4830915E-1,-9.0549827E-1,-3.998021E-2,-4.9878202E-2,2.225543E0,-1.1712146E-1,-5.492406E-1,-3.7812912E-1,-6.79745E-1,1.7760878E0,1.5806249E-1,6.9483507E-1,-3.3143628E-1,7.237704E-2,6.4186305E-1,4.6565622E-1,-1.3545061E0,2.222082E0,-2.070916E-1,-1.7969489E-1,-2.3713014E-1,-2.4397431E-1,9.2643626E-2,-2.5662875E-1,5.223749E-2,-5.2575435E-2,2.3712821E-1,2.1089537E-2,-2.3236771E-1,-5.019212E-3,-2.2202617E-1,2.7008885E-1,-5.866998E-2,3.0617038E-2,-2.2970539E-2,-1.8134351E-1,-6.22676E-2,1.1889018E-1,2.255079E-2,-8.138161E-2,-7.4579984E-2,-1.4737597E-1,-1.8494375E-1,6.777297E-1,-9.187951E-2,2.2713362E-1,-6.0170304E-2,3.1551692E-1,-1.0362744E-1,-1.888915E-1,-1.4510943E-1,-3.722601E-2,1.6501759E-1,4.353845E-2,-3.5615814E-1,-1.0555473E-2,7.0025265E-2,4.4591942E-1,-1.1329066E-1,2.423691E-1,-2.681857E-1,-6.564571E-2,-2.8748056E-2,2.510979E-1,-3.4606373E-1,-1.0613241E-1,-1.320678E-1,2.8236362E-1,-1.5096045E-1,2.2430633E-1,4.3044627E-2,1.4096017E-1,1.042775E-1,-1.03626706E-1,-1.1559547E-1,2.4272066E-1,4.0691188E-1,6.270178E-2,9.925562E-2,2.560989E-1],"split_indices":[1,6,1,4,2,5,3,3,1,5,7,0,4,4,3,1,0,6,2,4,7,1,0,2,8,7,0,1,3,2,7,0,1,0,2,3,6,5,2,5,0,3,8,0,3,0,0,5,1,4,6,5,7,3,1,9,8,9,7,0,0,0,0,0,0,0,0,0,0,0,0,0,0,0,0,0,0,0,0,0,0,0,0,0,0,0,0,0,0,0,0,0,0,0,0,0,0,0,0,0,0,0,0,0,0,0,0,0,0,0,0,0,0,0,0,0,0],"split_type":[0,0,0,0,0,0,0,0,0,0,0,0,0,0,0,0,0,0,0,0,0,0,0,0,0,0,0,0,0,0,0,0,0,0,0,0,0,0,0,0,0,0,0,0,0,0,0,0,0,0,0,0,0,0,0,0,0,0,0,0,0,0,0,0,0,0,0,0,0,0,0,0,0,0,0,0,0,0,0,0,0,0,0,0,0,0,0,0,0,0,0,0,0,0,0,0,0,0,0,0,0,0,0,0,0,0,0,0,0,0,0,0,0,0,0,0,0],"sum_hessian":[3.794925E3,2.4845237E3,1.3104015E3,8.166419E2,1.6678817E3,8.700826E2,4.4031894E2,3.739196E2,4.4272235E2,8.1529803E2,8.525837E2,8.409455E2,2.9137098E1,3.4619196E2,9.412696E1,3.6955884E2,4.360741E0,5.287447E1,3.8984787E2,2.4963701E2,5.65661E2,9.713401E1,7.5544965E2,8.3242114E2,8.524353E0,1.5604305E1,1.3532794E1,2.9703186E2,4.9160107E1,9.061661E1,3.5103557E0,3.123479E2,5.721094E1,3.8896973E1,1.3977495E1,3.059367E2,8.391116E1,7.295741E1,1.766796E2,5.6029126E2,5.3697495E0,6.896622E1,2.8167793E1,5.8670685E2,1.6874283E2,8.26072E2,6.3491535E0,5.515484E0,3.0088687E0,2.5951047E0,1.30092E1,1.0464259E1,3.0685346E0,6.0622715E1,2.3640915E2,3.355593E1,1.56041765E1,1.7372774E1,7.3243835E1,2.1179426E0,1.3924131E0,1.7264798E2,1.3969992E2,2.9998528E1,2.7212414E1,3.4545986E1,4.3509874E0,7.846513E0,6.1309824E0,8.463385E1,2.2130286E2,4.7301743E1,3.660942E1,2.3882368E1,4.9075043E1,7.475572E1,1.01923874E2,4.4500644E2,1.15284836E2,2.819857E0,2.549893E0,6.694631E1,2.019906E0,2.063103E1,7.5367627E0,2.1786436E2,3.6884247E2,5.234349E1,1.1639934E2,3.0316452E1,7.9575555E2,4.4307847E0,1.9183689E0,1.8185372E0,3.6969469E0,1.8691653E0,1.1397033E0,1.5363104E0,1.0587944E0,8.8974495E0,4.1117506E0,7.2590303E0,3.2052286E0,1.153373E0,1.9151616E0,2.971188E0,5.7651524E1,9.7871605E1,1.3853754E2,1.1543802E1,2.2012127E1,4.4333577E0,1.1170818E1,1.2268168E1,5.104606E0,3.5177834E1,3.8066E1],"tree_param":{"num_deleted":"0","num_feature":"10","num_nodes":"117","size_leaf_vector":"1"}},{"base_weights":[-4.5576513E-2,-1.6131674E-1,1.7680715E-1,-2.5501281E-2,-2.717223E-1,3.802396E-2,2.5210476E-1,3.5248786E-2,-1.8590866E-1,4.042553E-2,-2.9837573E-1,-2.4074346E-1,9.05543E-2,4.9946985E-1,2.2926438E-1,-1.3612037E-2,1.9802089E-1,-2.1884951E-1,5.1095355E-1,4.4417205E-1,-9.2695415E-2,-2.2474054E-1,-3.8546455E-1,1.3061489E-1,-4.2106995E-1,9.4763535E-1,6.779838E-2,5.6310976E-1,-2.6751426E-1,-5.550081E-1,2.4332812E-1,8.4025376E-2,-1.7165683E-1,2.629637E-1,-3.5987884E-1,-1.3645943E-1,-5.586113E-1,1.5308496E0,-1.7831233E-1,2.0665735E-1,1.4473556E0,-4.0860718E-1,1.5867381E-1,-2.616326E-1,-2.1640725E-2,-5.324379E-1,-2.449922E-1,-1.2279235E-1,5.2401036E-1,5.882462E-1,-5.108319E-1,1.4504703E0,2.75445E-1,1.5537454E-1,-1.6575627E-1,1.6882296E-1,7.45119E-1,2.801048E-1,-1.0902461E0,1.1298555E-1,2.9199672E-1,7.292382E-3,9.443369E-2,-6.4687744E-2,2.80128E-1,-4.703589E-2,1.0272586E-1,-1.7957433E-1,3.080063E-1,-1.913346E-1,-3.0511076E-2,-2.314315E-1,-7.1920305E-2,7.5891006E-1,-1.1679701E-1,-2.1697535E-1,1.2299959E-1,-1.7422482E-2,3.295331E-1,-7.716083E-2,6.4107347E-1,1.7672971E-1,-1.5770195E-1,-3.6772963E-2,1.5573205E-1,1.4992465E-1,-8.1990525E-2,-3.6277156E-2,3.0816048E-1,-1.0638396E-1,-1.8869263E-1,-5.9692547E-2,-2.1278486E-1,4.3027546E-2,-3.2768112E-1,4.183786E-1,1.964713E-2,-6.7040935E-2,3.3726186E-1,-1.1854951E-1,-2.8614423E-1,4.905323E-1,1.342235E-1,-2.1674271E-1,2.0296483E-1,-8.350502E-2,7.850951E-2,3.3336606E-2,-1.05380125E-1,9.960578E-2,-2.7693933E-1,3.0444628E-1,7.030596E-2,-2.1173906E-1,2.2532965E-1,-1.00621976E-1,-3.9820707E-1,1.9271437E-2,2.1631677E-1,-6.711728E-2,9.314273E-2],"categories":[],"categories_nodes":[],"categories_segments":[],"categories_sizes":[],"default_left":[0,0,0,0,0,0,0,0,0,0,0,0,0,0,0,0,0,0,0,0,0,0,0,0,0,0,0,0,0,0,0,0,0,0,0,0,0,0,0,0,0,0,0,0,0,0,0,0,0,0,0,0,0,0,0,0,0,0,0,0,0,0,0,0,0,0,0,0,0,0,0,0,0,0,0,0,0,0,0,0,0,0,0,0,0,0,0,0,0,0,0,0,0,0,0,0,0,0,0,0,0,0,0,0,0,0,0,0,0,0,0,0,0,0,0,0,0,0,0,0,0],"id":5,"left_children":[1,3,5,7,9,11,13,15,17,19,21,23,25,27,29,31,33,35,37,39,41,43,45,47,49,51,53,55,-1,57,59,61,63,65,67,69,71,73,75,77,79,81,83,85,87,89,91,93,95,97,99,101,103,105,107,109,111,113,115,117,119,-1,-1,-1,-1,-1,-1,-1,-1,-1,-1,-1,-1,-1,-1,-1,-1,-1,-1,-1,-1,-1,-1,-1,-1,-1,-1,-1,-1,-1,-1,-1,-1,-1,-1,-1,-1,-1,-1,-1,-1,-1,-1,-1,-1,-1,-1,-1,-1,-1,-1,-1,-1,-1,-1,-1,-1,-1,-1,-1,-1],"loss_changes":[9.453637E1,3.6212513E1,1.31297E1,1.0571831E1,1.1096298E1,6.5150843E0,4.48975E0,6.263603E0,6.9520245E0,5.72171E0,7.785591E0,4.7815213E0,7.226918E0,6.525772E0,8.384125E0,9.371937E0,6.68205E0,7.908231E0,9.938719E0,5.986343E0,6.442344E0,4.996254E0,1.1452057E1,2.4403155E0,4.6263266E0,2.842494E0,7.496387E0,4.5872E0,0E0,6.330663E0,4.6321487E0,5.166872E0,1.1472485E1,5.504487E0,7.028774E0,3.9580693E0,3.5710335E0,1.1819964E1,3.2140694E0,5.374756E0,6.289528E0,4.4987717E0,4.6704063E0,5.1551476E0,1.0923761E1,4.4688034E0,6.027092E0,4.107074E0,3.7118785E0,2.1499138E0,1.8972034E0,2.4124146E-1,2.62586E0,1.2346596E1,5.1800556E0,4.23309E0,5.911438E0,3.3443947E0,1.0616741E0,5.928605E0,5.1664925E0,0E0,0E0,0E0,0E0,0E0,0E0,0E0,0E0,0E0,0E0,0E0,0E0,0E0,0E0,0E0,0E0,0E0,0E0,0E0,0E0,0E0,0E0,0E0,0E0,0E0,0E0,0E0,0E0,0E0,0E0,0E0,0E0,0E0,0E0,0E0,0E0,0E0,0E0,0E0,0E0,0E0,0E0,0E0,0E0,0E0,0E0,0E0,0E0,0E0,0E0,0E0,0E0,0E0,0E0,0E0,0E0,0E0,0E0,0E0,0E0],"parents":[2147483647,0,0,1,1,2,2,3,3,4,4,5,5,6,6,7,7,8,8,9,9,10,10,11,11,12,12,13,13,14,14,15,15,16,16,17,17,18,18,19,19,20,20,21,21,22,22,23,23,24,24,25,25,26,26,27,27,29,29,30,30,31,31,32,32,33,33,34,34,35,35,36,36,37,37,38,38,39,39,40,40,41,41,42,42,43,43,44,44,45,45,46,46,47,47,48,48,49,49,50,50,51,51,52,52,53,53,54,54,55,55,56,56,57,57,58,58,59,59,60,60],"right_children":[2,4,6,8,10,12,14,16,18,20,22,24,26,28,30,32,34,36,38,40,42,44,46,48,50,52,54,56,-1,58,60,62,64,66,68,70,72,74,76,78,80,82,84,86,88,90,92,94,96,98,100,102,104,106,108,110,112,114,116,118,120,-1,-1,-1,-1,-1,-1,-1,-1,-1,-1,-1,-1,-1,-1,-1,-1,-1,-1,-1,-1,-1,-1,-1,-1,-1,-1,-1,-1,-1,-1,-1,-1,-1,-1,-1,-1,-1,-1,-1,-1,-1,-1,-1,-1,-1,-1,-1,-1,-1,-1,-1,-1,-1,-1,-1,-1,-1,-1,-1,-1],"split_conditions":[5.25141E-1,-2.4326159E-1,8.6452913E-1,-5.449567E-1,-9.0549827E-1,-2.858963E-1,-6.1387104E-1,-3.2332945E-1,8.2992935E-1,-2.736205E-1,-1.12514645E-1,-2.58828E-1,-6.4838225E-1,-8.216682E-2,-5.973729E-1,-2.8828177E-1,8.6720294E-1,1.9389322E-2,1.7353725E-1,-1.8039674E-1,-1.0596461E0,1.1406796E0,5.2166027E-1,-4.859275E-1,-3.0129626E-1,-2.803622E-1,6.9483507E-1,-6.854385E-1,-2.6751426E-1,-2.7885354E-1,-2.9135835E-1,-8.324117E-1,5.423694E-1,-1.1375335E0,7.5672194E-3,-6.6271764E-1,-8.338207E-2,1.2695222E0,1.8514596E0,-2.8703842E-1,-4.9302354E-1,-3.177914E-1,-2.0901799E-1,-1.3545061E0,6.852444E-2,-1.4521098E-1,6.061867E-1,-5.4123396E-1,-4.1610682E-1,-6.7014706E-1,1.7353725E-1,-2.8278473E-1,6.9483507E-1,-3.136125E-1,-2.1143588E-1,3.7493286E0,-3.1223798E-1,-2.9918978E-1,-3.0129626E-1,2.600504E-1,-1.3545061E0,7.292382E-3,9.443369E-2,-6.4687744E-2,2.80128E-1,-4.703589E-2,1.0272586E-1,-1.7957433E-1,3.080063E-1,-1.913346E-1,-3.0511076E-2,-2.314315E-1,-7.1920305E-2,7.5891006E-1,-1.1679701E-1,-2.1697535E-1,1.2299959E-1,-1.7422482E-2,3.295331E-1,-7.716083E-2,6.4107347E-1,1.7672971E-1,-1.5770195E-1,-3.6772963E-2,1.5573205E-1,1.4992465E-1,-8.1990525E-2,-3.6277156E-2,3.0816048E-1,-1.0638396E-1,-1.8869263E-1,-5.9692547E-2,-2.1278486E-1,4.3027546E-2,-3.2768112E-1,4.183786E-1,1.964713E-2,-6.7040935E-2,3.3726186E-1,-1.1854951E-1,-2.8614423E-1,4.905323E-1,1.342235E-1,-2.1674271E-1,2.0296483E-1,-8.350502E-2,7.850951E-2,3.3336606E-2,-1.05380125E-1,9.960578E-2,-2.7693933E-1,3.0444628E-1,7.030596E-2,-2.1173906E-1,2.2532965E-1,-1.00621976E-1,-3.9820707E-1,1.9271437E-2,2.1631677E-1,-6.711728E-2,9.314273E-2],"split_indices":[1,9,1,0,2,6,0,1,0,8,4,8,0,5,0,6,2,2,2,7,2,3,0,0,7,8,1,0,0,6,8,1,6,3,8,1,5,0,0,8,1,4,8,3,5,6,5,0,0,0,2,7,1,8,6,1,8,7,7,7,3,0,0,0,0,0,0,0,0,0,0,0,0,0,0,0,0,0,0,0,0,0,0,0,0,0,0,0,0,0,0,0,0,0,0,0,0,0,0,0,0,0,0,0,0,0,0,0,0,0,0,0,0,0,0,0,0,0,0,0,0],"split_type":[0,0,0,0,0,0,0,0,0,0,0,0,0,0,0,0,0,0,0,0,0,0,0,0,0,0,0,0,0,0,0,0,0,0,0,0,0,0,0,0,0,0,0,0,0,0,0,0,0,0,0,0,0,0,0,0,0,0,0,0,0,0,0,0,0,0,0,0,0,0,0,0,0,0,0,0,0,0,0,0,0,0,0,0,0,0,0,0,0,0,0,0,0,0,0,0,0,0,0,0,0,0,0,0,0,0,0,0,0,0,0,0,0,0,0,0,0,0,0,0,0],"sum_hessian":[3.6708137E3,2.4144702E3,1.2563434E3,1.0832009E3,1.3312694E3,4.4241687E2,8.139265E2,7.862208E2,2.9698016E2,1.04690094E2,1.2265792E3,6.95812E1,3.728357E2,6.703696E1,7.468896E2,6.054066E2,1.808142E2,2.8423047E2,1.274969E1,2.5379435E1,7.931065E1,6.6656616E2,5.600131E2,2.2833773E1,4.674743E1,8.591748E0,3.6424393E2,6.4673676E1,2.363276E0,1.2479852E1,7.344097E2,3.7450937E2,2.3089723E2,1.6243451E2,1.8379677E1,2.2988615E2,5.4344307E1,4.649263E0,8.100428E0,2.149602E1,3.8834164E0,3.4866356E1,4.44443E1,5.638563E2,1.0270986E2,2.723102E2,2.877029E2,1.4306226E1,8.527547E0,3.3643248E0,4.3383102E1,4.252683E0,4.339065E0,2.6515378E2,9.909016E1,2.1034397E1,4.3639282E1,5.0606194E0,7.4192324E0,2.0057045E2,5.338393E2,2.9839273E2,7.6116646E1,2.2283856E2,8.058672E0,2.5698896E1,1.3673561E2,1.6165098E1,2.2145782E0,1.3779438E1,2.1610672E2,3.1740566E1,2.260374E1,2.8495355E0,1.7997273E0,4.086151E0,4.014276E0,1.7296364E1,4.199655E0,1.2990965E0,2.58432E0,3.2379987E0,3.1628357E1,2.5335001E1,1.9109299E1,7.880012E0,5.559763E2,9.4636314E1,8.073541E0,9.745982E1,1.7485039E2,2.63059E2,2.4643908E1,1.1892593E1,2.4136324E0,2.2375774E0,6.28997E0,1.5698385E0,1.7944864E0,3.590105E1,7.4820523E0,3.059404E0,1.1932795E0,1.0143113E0,3.324754E0,5.1884495E1,2.1326927E2,3.9915916E1,5.9174244E1,1.890493E1,2.1294663E0,2.7913256E1,1.5726024E1,1.474861E0,3.5857582E0,2.3506188E0,5.0686135E0,1.8670818E2,1.3862271E1,1.8082346E1,5.1575696E2],"tree_param":{"num_deleted":"0","num_feature":"10","num_nodes":"121","size_leaf_vector":"1"}},{"base_weights":[-3.4857363E-2,-1.2316597E-1,1.2025782E-1,4.0284317E-2,-1.8525404E-1,6.240446E-2,2.4011332E-1,4.2328224E-1,8.193921E-3,-1.5343691E-1,-3.9253476E-1,-6.807897E-2,9.675963E-2,2.794843E-1,-1.0940676E-2,7.364998E-1,1.2163228E-1,2.220389E-2,-5.955401E-1,-6.763711E-1,-1.4371526E-1,-4.6366742E-1,2.2655226E-1,7.997325E-2,-2.1624424E-1,-9.013643E-2,1.3938259E-1,2.2629614E-1,4.6922085E-1,-3.249859E-1,2.0397031E-1,2.9297888E-1,1.072723E0,9.853581E-1,-5.7285856E-2,-2.2305008E-2,2.1007007E-1,-8.373359E-1,3.980245E-1,-7.3760563E-1,1.0957234E-1,-1.09649114E-1,-2.8553203E-1,-3.302482E-1,-6.291637E-1,8.999737E-1,-1.6700527E-1,1.1881907E-2,6.1688626E-1,-4.2884376E-2,-4.8798105E-1,-3.4343806E-1,5.207845E-2,-9.583787E-2,1.9958349E-1,1.0174186E-1,3.1578588E-1,3.6747998E-1,9.471146E-1,-1.3832957E-1,-3.4408808E-1,-1.1444179E-1,5.7748204E-1,2.0829503E-1,-1.6682684E-1,1.7189191E-1,5.095919E-1,-9.281692E-2,4.8673156E-1,-1.4951552E-1,6.746127E-2,-3.9521042E-2,2.774659E-2,1.5588139E-1,1.0186615E-2,-5.814823E-2,-2.672712E-1,3.9337736E-1,-1.8891186E-1,-7.630547E-2,-2.538132E-1,-3.6117777E-2,1.5687199E-1,-4.4460375E-2,-1.5113679E-1,-1.2728244E-1,3.6585286E-2,-4.375234E-3,-2.1231747E-1,-1.4217899E-2,3.9350775E-1,-1.6986375E-1,9.5096596E-2,-9.9496804E-2,4.0468194E-2,3.2137308E-1,-1.7811064E-1,-9.028542E-2,9.116042E-2,-3.256873E-1,-1.0570156E-1,6.608611E-2,-1.7726159E-1,3.2922918E-1,-2.6703514E-3,9.430163E-2,-8.86258E-2,1.2681106E-1,4.1737206E-2,1.7650884E-2,2.676757E-1,3.948342E-2,1.3865313E-1,1.7517081E-1,1.4282514E-2,3.2692808E-1,7.6447755E-2,8.1900686E-2,-2.0597537E-1,-1.3665183E-1,8.2282305E-2,2.1523416E-1,-2.1298012E-1],"categories":[],"categories_nodes":[],"categories_segments":[],"categories_sizes":[],"default_left":[0,0,0,0,0,0,0,0,0,0,0,0,0,0,0,0,0,0,0,0,0,0,0,0,0,0,0,0,0,0,0,0,0,0,0,0,0,0,0,0,0,0,0,0,0,0,0,0,0,0,0,0,0,0,0,0,0,0,0,0,0,0,0,0,0,0,0,0,0,0,0,0,0,0,0,0,0,0,0,0,0,0,0,0,0,0,0,0,0,0,0,0,0,0,0,0,0,0,0,0,0,0,0,0,0,0,0,0,0,0,0,0,0,0,0,0,0,0,0,0,0,0,0],"id":6,"left_children":[1,3,5,7,9,11,13,15,17,19,21,23,25,27,29,31,33,35,37,39,41,43,45,47,49,51,53,55,57,59,61,63,65,67,69,71,73,75,77,79,-1,81,83,85,87,89,91,93,95,97,99,101,103,105,107,109,111,113,115,117,-1,119,121,-1,-1,-1,-1,-1,-1,-1,-1,-1,-1,-1,-1,-1,-1,-1,-1,-1,-1,-1,-1,-1,-1,-1,-1,-1,-1,-1,-1,-1,-1,-1,-1,-1,-1,-1,-1,-1,-1,-1,-1,-1,-1,-1,-1,-1,-1,-1,-1,-1,-1,-1,-1,-1,-1,-1,-1,-1,-1,-1,-1],"loss_changes":[4.9047733E1,2.316058E1,8.992968E0,7.7258725E0,1.0845325E1,3.9403236E0,4.1798363E0,4.5021706E0,4.9299073E0,7.198967E0,9.76701E0,4.0420904E0,5.549328E0,3.5805569E0,3.9974983E0,3.21165E0,4.067369E0,4.763057E0,3.5090241E0,1.9229155E0,6.7818813E0,4.144726E0,6.321026E0,3.374526E0,4.3117924E0,4.6894116E0,8.0391035E0,3.1698427E0,3.4957352E0,3.5314136E0,4.251998E0,4.3291516E0,3.116108E0,4.2210526E0,2.9056582E0,5.802948E0,5.9294834E0,2.0491505E-1,3.890248E0,1.0852461E0,0E0,7.801628E0,8.093857E0,4.7816095E0,4.184376E0,3.4729657E0,3.181749E0,3.557009E0,6.3516617E0,5.2142515E0,2.5136747E0,6.6525607E0,5.3592725E0,9.596327E0,6.0287533E0,4.0711308E0,4.433338E0,4.5975065E0,1.0300026E0,4.8640103E0,0E0,2.7544825E0,3.457686E0,0E0,0E0,0E0,0E0,0E0,0E0,0E0,0E0,0E0,0E0,0E0,0E0,0E0,0E0,0E0,0E0,0E0,0E0,0E0,0E0,0E0,0E0,0E0,0E0,0E0,0E0,0E0,0E0,0E0,0E0,0E0,0E0,0E0,0E0,0E0,0E0,0E0,0E0,0E0,0E0,0E0,0E0,0E0,0E0,0E0,0E0,0E0,0E0,0E0,0E0,0E0,0E0,0E0,0E0,0E0,0E0,0E0,0E0,0E0,0E0],"parents":[2147483647,0,0,1,1,2,2,3,3,4,4,5,5,6,6,7,7,8,8,9,9,10,10,11,11,12,12,13,13,14,14,15,15,16,16,17,17,18,18,19,19,20,20,21,21,22,22,23,23,24,24,25,25,26,26,27,27,28,28,29,29,30,30,31,31,32,32,33,33,34,34,35,35,36,36,37,37,38,38,39,39,41,41,42,42,43,43,44,44,45,45,46,46,47,47,48,48,49,49,50,50,51,51,52,52,53,53,54,54,55,55,56,56,57,57,58,58,59,59,61,61,62,62],"right_children":[2,4,6,8,10,12,14,16,18,20,22,24,26,28,30,32,34,36,38,40,42,44,46,48,50,52,54,56,58,60,62,64,66,68,70,72,74,76,78,80,-1,82,84,86,88,90,92,94,96,98,100,102,104,106,108,110,112,114,116,118,-1,120,122,-1,-1,-1,-1,-1,-1,-1,-1,-1,-1,-1,-1,-1,-1,-1,-1,-1,-1,-1,-1,-1,-1,-1,-1,-1,-1,-1,-1,-1,-1,-1,-1,-1,-1,-1,-1,-1,-1,-1,-1,-1,-1,-1,-1,-1,-1,-1,-1,-1,-1,-1,-1,-1,-1,-1,-1,-1,-1,-1,-1],"split_conditions":[3.554469E-1,-3.077434E-1,1.5433055E0,-1.0596461E0,1.770291E-1,-2.8828177E-1,2.0311503E-2,-6.781932E-1,1.0714022E0,-3.0129626E-1,3.786845E0,-2.377489E-1,-3.077434E-1,9.2370695E-1,1.1087478E-1,-7.035881E-1,-1.3545061E0,-3.2332945E-1,9.949314E-1,7.8898054E-1,6.35981E-1,2.143687E-1,3.811237E-1,-2.542307E-1,-4.4305447E-1,6.9483507E-1,-3.136125E-1,-2.1397828E-1,-1.1656381E-1,1.1968866E-1,5.5816222E-2,-2.964037E-1,-6.6271764E-1,-2.858963E-1,-7.035881E-1,5.5816222E-2,-5.9510183E-1,-1.6808822E0,-2.2106983E-1,-2.5264934E-1,1.0957234E-1,2.0322015E0,-2.8054124E-1,7.805671E-2,-1.6872425E-1,4.0363568E-1,5.2370844E0,-1.0596461E0,-3.4786165E-1,-1.6115646E-1,-2.3050557E-1,-9.0549827E-1,-6.8690866E-1,-2.0592989E-1,-2.4793196E-1,1.1778709E0,-2.751663E-1,-2.745316E-1,-3.2490246E-2,3.0590734E-3,-3.4408808E-1,9.6463285E-2,2.1170566E0,2.0829503E-1,-1.6682684E-1,1.7189191E-1,5.095919E-1,-9.281692E-2,4.8673156E-1,-1.4951552E-1,6.746127E-2,-3.9521042E-2,2.774659E-2,1.5588139E-1,1.0186615E-2,-5.814823E-2,-2.672712E-1,3.9337736E-1,-1.8891186E-1,-7.630547E-2,-2.538132E-1,-3.6117777E-2,1.5687199E-1,-4.4460375E-2,-1.5113679E-1,-1.2728244E-1,3.6585286E-2,-4.375234E-3,-2.1231747E-1,-1.4217899E-2,3.9350775E-1,-1.6986375E-1,9.5096596E-2,-9.9496804E-2,4.0468194E-2,3.2137308E-1,-1.7811064E-1,-9.028542E-2,9.116042E-2,-3.256873E-1,-1.0570156E-1,6.608611E-2,-1.7726159E-1,3.2922918E-1,-2.6703514E-3,9.430163E-2,-8.86258E-2,1.2681106E-1,4.1737206E-2,1.7650884E-2,2.676757E-1,3.948342E-2,1.3865313E-1,1.7517081E-1,1.4282514E-2,3.2692808E-1,7.6447755E-2,8.1900686E-2,-2.0597537E-1,-1.3665183E-1,8.2282305E-2,2.1523416E-1,-2.1298012E-1],"split_indices":[1,7,1,2,5,6,4,0,9,7,0,9,7,3,4,3,3,1,8,6,2,6,6,9,2,1,8,5,7,6,3,6,1,6,3,3,3,1,4,5,0,0,0,6,4,4,0,2,0,3,7,2,0,7,7,0,4,0,8,7,0,2,3,0,0,0,0,0,0,0,0,0,0,0,0,0,0,0,0,0,0,0,0,0,0,0,0,0,0,0,0,0,0,0,0,0,0,0,0,0,0,0,0,0,0,0,0,0,0,0,0,0,0,0,0,0,0,0,0,0,0,0,0],"split_type":[0,0,0,0,0,0,0,0,0,0,0,0,0,0,0,0,0,0,0,0,0,0,0,0,0,0,0,0,0,0,0,0,0,0,0,0,0,0,0,0,0,0,0,0,0,0,0,0,0,0,0,0,0,0,0,0,0,0,0,0,0,0,0,0,0,0,0,0,0,0,0,0,0,0,0,0,0,0,0,0,0,0,0,0,0,0,0,0,0,0,0,0,0,0,0,0,0,0,0,0,0,0,0,0,0,0,0,0,0,0,0,0,0,0,0,0,0,0,0,0,0,0,0],"sum_hessian":[3.578566E3,2.2804749E3,1.2980911E3,6.2788464E2,1.6525903E3,8.765214E2,4.2156967E2,4.7599205E1,5.802854E2,1.4341863E3,2.1840407E2,1.824774E2,6.94044E2,3.6432242E2,5.7247265E1,2.2644632E1,2.4954573E1,5.6806635E2,1.221906E1,2.4924177E1,1.4092621E3,1.9612096E2,2.2283113E1,9.150372E1,9.097367E1,1.2868082E2,5.653632E2,2.8626694E2,7.8055466E1,2.305104E1,3.4196224E1,1.0571228E1,1.2073403E1,3.5087583E0,2.1445814E1,4.5997195E2,1.08094406E2,9.9539E0,2.2651596E0,2.3815943E1,1.1082354E0,1.1377367E3,2.7152536E2,1.1024195E2,8.5879E1,7.744549E0,1.4538564E1,8.211236E1,9.391364E0,5.6247368E1,3.4726303E1,4.576068E1,8.292014E1,1.1508894E2,4.5027423E2,1.2057887E2,1.6568808E2,6.581317E1,1.2242292E1,1.9737322E1,3.3137193E0,1.8834097E1,1.5362125E1,7.301985E0,3.2692435E0,7.778354E0,4.2950497E0,1.3267492E0,2.182009E0,8.06748E0,1.3378334E1,2.3541E2,2.2456195E2,3.8491817E1,6.960259E1,1.1198287E0,8.834072E0,1.0533152E0,1.2118444E0,4.9778438E0,1.8838099E1,1.119532E3,1.8204708E1,1.6769078E2,1.0383458E2,9.131617E1,1.8925783E1,9.867987E0,7.601102E1,2.6141858E0,5.130363E0,7.8740363E0,6.664528E0,2.12028E1,6.0909557E1,6.9121904E0,2.479174E0,3.232322E1,2.3924147E1,5.1281276E0,2.9598175E1,1.399219E1,3.176849E1,3.6336184E0,7.928652E1,3.7481853E1,7.760709E1,9.472157E1,3.5555267E2,1.1539039E2,5.188478E0,7.421605E1,9.147202E1,3.8761806E1,2.7051365E1,9.674689E0,2.5676033E0,1.1563663E1,8.17366E0,9.940425E0,8.893672E0,1.4255068E1,1.1070573E0],"tree_param":{"num_deleted":"0","num_feature":"10","num_nodes":"123","size_leaf_vector":"1"}},{"base_weights":[-2.611231E-2,-7.3696345E-2,1.3518994E-1,6.323237E-2,-1.0960836E-1,1.3918303E-1,-3.1458655E-1,1.2058038E-1,-5.594981E-2,-4.2985592E-2,-1.9219229E-1,1.0702199E-1,2.4454658E-1,5.3214405E-2,3.4452632E-1,-1.1719703E-1,2.448609E-1,-1.1809351E-1,2.2270478E-2,-2.1171042E-1,1.6386934E-1,2.6876837E-2,1.7806178E-1,3.3626965E-1,6.747027E-2,-3.0631253E-2,3.8739675E-1,4.7777265E-1,-2.0658137E-1,6.2072013E-2,-2.2149386E-1,-2.3730128E-1,6.199576E-1,-1.39169255E-2,-2.1998481E-1,1.369773E-2,1.3510165E0,-1.0328396E-1,-2.8813735E-1,7.241591E-1,-8.580235E-2,1.600777E-1,-9.471656E-2,4.1212657E-1,7.648578E-2,-5.7263333E-2,4.668196E-1,4.70813E-1,-2.2032012E-1,8.45693E-3,-9.9171646E-2,1.5244053E-1,-7.761218E-2,2.6147565E-1,7.2788544E-2,-1.5228443E-1,2.1640673E-1,-7.043699E-2,9.07916E-2,1.0630266E-1,-9.091377E-2,3.3408412E-1,-1.6852969E-1,3.0879444E-1,-1.9920487E-2,-4.276862E-2,3.7872847E-2,-1.1692883E-1,-2.5294308E-2,1.016057E-2,-1.6268362E-1,-6.7900054E-2,6.605154E-1,-1.0887425E-1,7.885094E-3,-1.18250586E-1,-5.0829105E-2,-2.1038534E-1,2.7130553E-1,-7.81011E-2,1.135904E-1,3.446705E-2,3.834805E-1,-1.2042498E-1,2.13523E-2,1.8906207E-1,5.5948485E-2,1.6818592E-1,4.6527986E-3,5.579744E-2,-1.9351314E-1,1.8308407E-1,2.085091E-2,2.2416174E-1,-3.2126105E-1,-1.1122974E-1,1.6772851E-1],"categories":[],"categories_nodes":[],"categories_segments":[],"categories_sizes":[],"default_left":[0,0,0,0,0,0,0,0,0,0,0,0,0,0,0,0,0,0,0,0,0,0,0,0,0,0,0,0,0,0,0,0,0,0,0,0,0,0,0,0,0,0,0,0,0,0,0,0,0,0,0,0,0,0,0,0,0,0,0,0,0,0,0,0,0,0,0,0,0,0,0,0,0,0,0,0,0,0,0,0,0,0,0,0,0,0,0,0,0,0,0,0,0,0,0,0,0],"id":7,"left_children":[1,3,5,7,9,11,-1,13,15,17,19,21,23,25,27,29,31,33,35,37,39,41,43,45,47,49,51,53,55,57,59,61,63,65,67,69,71,73,75,77,79,81,83,85,87,89,91,93,95,-1,-1,-1,-1,-1,-1,-1,-1,-1,-1,-1,-1,-1,-1,-1,-1,-1,-1,-1,-1,-1,-1,-1,-1,-1,-1,-1,-1,-1,-1,-1,-1,-1,-1,-1,-1,-1,-1,-1,-1,-1,-1,-1,-1,-1,-1,-1,-1],"loss_changes":[2.6917858E1,1.33221E1,3.922655E0,3.8564298E0,1.1796391E1,2.6750498E0,0E0,5.7232714E0,3.4124026E0,5.8292904E0,6.690525E0,3.4825325E0,2.992485E0,8.242827E0,6.5481253E0,2.8794115E0,5.824641E0,5.865208E0,7.237189E0,7.497757E0,7.1033535E0,4.6957083E0,7.6840963E0,6.2967787E0,7.602102E0,4.168839E0,4.7334833E0,6.366001E0,5.3379884E0,4.152673E0,4.6678963E0,6.9633055E0,5.1069903E0,4.966103E0,6.40326E0,7.1271787E0,5.963655E0,1.2695972E1,6.6325684E0,4.6466866E0,2.9934726E0,6.8403435E0,7.7471175E0,4.703808E0,6.7084155E0,4.594095E0,5.187336E0,1.2397798E1,4.7077355E0,0E0,0E0,0E0,0E0,0E0,0E0,0E0,0E0,0E0,0E0,0E0,0E0,0E0,0E0,0E0,0E0,0E0,0E0,0E0,0E0,0E0,0E0,0E0,0E0,0E0,0E0,0E0,0E0,0E0,0E0,0E0,0E0,0E0,0E0,0E0,0E0,0E0,0E0,0E0,0E0,0E0,0E0,0E0,0E0,0E0,0E0,0E0,0E0],"parents":[2147483647,0,0,1,1,2,2,3,3,4,4,5,5,7,7,8,8,9,9,10,10,11,11,12,12,13,13,14,14,15,15,16,16,17,17,18,18,19,19,20,20,21,21,22,22,23,23,24,24,25,25,26,26,27,27,28,28,29,29,30,30,31,31,32,32,33,33,34,34,35,35,36,36,37,37,38,38,39,39,40,40,41,41,42,42,43,43,44,44,45,45,46,46,47,47,48,48],"right_children":[2,4,6,8,10,12,-1,14,16,18,20,22,24,26,28,30,32,34,36,38,40,42,44,46,48,50,52,54,56,58,60,62,64,66,68,70,72,74,76,78,80,82,84,86,88,90,92,94,96,-1,-1,-1,-1,-1,-1,-1,-1,-1,-1,-1,-1,-1,-1,-1,-1,-1,-1,-1,-1,-1,-1,-1,-1,-1,-1,-1,-1,-1,-1,-1,-1,-1,-1,-1,-1,-1,-1,-1,-1,-1,-1,-1,-1,-1,-1,-1,-1],"split_conditions":[8.6452913E-1,-3.4145862E-1,5.961832E0,-2.7506045E-1,-1.347586E-1,2.222082E0,-3.1458655E-1,-4.9302354E-1,1.1406796E0,-4.8661548E-1,3.131567E0,-2.2790693E-1,2.56147E0,1.1754988E0,-1.6315469E-1,-5.9510183E-1,-2.022763E-1,-1.821213E-1,2.3511908E0,-5.7444096E-1,2.6466808E-1,-2.4095526E-1,-3.351192E-1,-9.0549827E-1,-4.2423996E-1,-6.959718E-1,-2.9068196E-1,-1.5363537E-1,9.2370695E-1,-6.7427635E-1,-9.0549827E-1,-7.0696354E-1,1.900084E0,-2.0581873E-1,-1.8320794E-1,1.8249772E-1,4.897616E-1,-8.324117E-1,4.989865E-1,-1.83033E-1,5.2370844E0,8.2992935E-1,-1.7886616E-1,-1.808782E-1,-1.1375335E0,-1.8888761E-1,-9.7456604E-2,-5.972024E-1,1.3166666E0,8.45693E-3,-9.9171646E-2,1.5244053E-1,-7.761218E-2,2.6147565E-1,7.2788544E-2,-1.5228443E-1,2.1640673E-1,-7.043699E-2,9.07916E-2,1.0630266E-1,-9.091377E-2,3.3408412E-1,-1.6852969E-1,3.0879444E-1,-1.9920487E-2,-4.276862E-2,3.7872847E-2,-1.1692883E-1,-2.5294308E-2,1.016057E-2,-1.6268362E-1,-6.7900054E-2,6.605154E-1,-1.0887425E-1,7.885094E-3,-1.18250586E-1,-5.0829105E-2,-2.1038534E-1,2.7130553E-1,-7.81011E-2,1.135904E-1,3.446705E-2,3.834805E-1,-1.2042498E-1,2.13523E-2,1.8906207E-1,5.5948485E-2,1.6818592E-1,4.6527986E-3,5.579744E-2,-1.9351314E-1,1.8308407E-1,2.085091E-2,2.2416174E-1,-3.2126105E-1,-1.1122974E-1,1.6772851E-1],"split_indices":[1,4,9,8,2,1,0,1,3,3,0,6,1,2,5,3,8,5,8,0,8,9,4,2,0,0,9,1,3,2,2,0,3,5,6,5,3,1,0,8,0,0,5,9,3,6,9,2,0,0,0,0,0,0,0,0,0,0,0,0,0,0,0,0,0,0,0,0,0,0,0,0,0,0,0,0,0,0,0,0,0,0,0,0,0,0,0,0,0,0,0,0,0,0,0,0,0],"split_type":[0,0,0,0,0,0,0,0,0,0,0,0,0,0,0,0,0,0,0,0,0,0,0,0,0,0,0,0,0,0,0,0,0,0,0,0,0,0,0,0,0,0,0,0,0,0,0,0,0,0,0,0,0,0,0,0,0,0,0,0,0,0,0,0,0,0,0,0,0,0,0,0,0,0,0,0,0,0,0,0,0,0,0,0,0,0,0,0,0,0,0,0,0,0,0,0,0],"sum_hessian":[3.5047268E3,2.706774E3,7.97953E2,5.622424E2,2.1445315E3,7.961499E2,1.8030496E0,3.795831E2,1.8265929E2,1.1878114E3,9.5672015E2,6.115093E2,1.8464062E2,2.927558E2,8.682729E1,1.5226703E2,3.0392263E1,5.5184424E2,6.359671E2,9.073856E2,4.933451E1,2.8798776E2,3.2352155E2,1.2104301E2,6.3597614E1,2.3476268E2,5.799313E1,7.0028854E1,1.6798443E1,5.6153416E1,9.611361E1,1.3458983E1,1.6933279E1,2.7342413E2,2.784201E2,6.3289417E2,3.0729706E0,3.761273E2,5.3125836E2,1.4621613E1,3.47129E1,1.3728302E2,1.5070474E2,9.698307E1,2.2653847E2,3.0291857E1,9.075115E1,2.6217466E1,3.738015E1,1.970295E2,3.773318E1,4.9042103E1,8.951025E0,2.5169346E1,4.4859505E1,1.3025717E1,3.7727263E0,2.5146437E1,3.1006979E1,1.150838E1,8.460523E1,2.135523E0,1.1323461E1,1.0294048E1,6.6392307E0,1.4255937E2,1.3086478E2,1.2283349E2,1.5558662E2,6.116428E2,2.125133E1,1.3338056E0,1.7391651E0,1.2461675E2,2.5151053E2,2.7938556E2,2.518728E2,1.3163718E0,1.3305241E1,2.5550512E1,9.162384E0,1.3301064E2,4.272388E0,5.2402657E1,9.830209E1,4.8404987E1,4.8578083E1,2.4424173E1,2.0211429E2,2.1908518E1,8.383339E0,6.6282326E1,2.446882E1,2.2668747E1,3.548719E0,3.1771748E1,5.6084E0],"tree_param":{"num_deleted":"0","num_feature":"10","num_nodes":"97","size_leaf_vector":"1"}},{"base_weights":[-1.9308299E-2,-7.1505584E-2,6.965984E-2,2.307367E-2,-1.2468385E-1,6.7122824E-2,3.856311E-1,3.970474E-2,-3.1601965E-1,3.4562334E-2,-1.485589E-1,7.511612E-2,-2.6421058E-1,4.5345694E-2,-2.717651E-1,-6.5148157E-1,3.6840484E-2,-5.32825E-1,8.787827E-2,-9.279557E-2,-2.0486999E-1,6.74094E-2,4.5530567E-1,-1.666534E-1,-2.939127E-1,3.8427565E-2,9.150662E-1,-4.370479E-1,-3.1917945E-1,5.7121634E-1,-5.220895E-1,-3.0791345E-1,2.159196E-1,-4.905674E-3,4.349421E-1,-1.0250552E-1,9.09316E-1,-2.9991147E-1,-1.12165175E-1,8.157197E-2,-1.1084467E-1,-3.3025184E-1,1.0311667E0,-4.4901204E-1,4.04584E-1,9.692021E-3,2.4498463E-1,4.2434508E-1,-9.1379255E-2,7.168491E-2,-2.089546E-1,2.690302E-1,-8.783928E-2,-2.955197E-1,1.3084017E-1,-2.058967E-1,1.756427E-1,1.9180338E-1,-1.5952492E-2,2.0180605E-1,-5.4302167E-2,-4.3893274E-2,1.716356E-2,4.792771E-1,-2.0090659E-1,-5.886346E-2,-1.3907064E-1,3.5772648E-1,-4.206364E-2,2.1121673E-2,1.5990639E-1,-5.8647607E-2,7.488425E-2,2.9931912E-2,-2.9717934E-1,3.5816482E-1,1.1625491E-2,-3.0347604E-1,-6.569272E-2,3.2888567E-1,-2.2278894E-2],"categories":[],"categories_nodes":[],"categories_segments":[],"categories_sizes":[],"default_left":[0,0,0,0,0,0,0,0,0,0,0,0,0,0,0,0,0,0,0,0,0,0,0,0,0,0,0,0,0,0,0,0,0,0,0,0,0,0,0,0,0,0,0,0,0,0,0,0,0,0,0,0,0,0,0,0,0,0,0,0,0,0,0,0,0,0,0,0,0,0,0,0,0,0,0,0,0,0,0,0,0],"id":8,"left_children":[1,3,5,7,9,11,-1,13,15,17,19,21,23,25,-1,27,29,31,33,35,37,39,41,43,-1,45,47,49,-1,51,53,-1,55,57,59,61,63,65,67,69,71,73,75,77,79,-1,-1,-1,-1,-1,-1,-1,-1,-1,-1,-1,-1,-1,-1,-1,-1,-1,-1,-1,-1,-1,-1,-1,-1,-1,-1,-1,-1,-1,-1,-1,-1,-1,-1,-1,-1],"loss_changes":[1.6019419E1,1.0936497E1,3.8483005E0,4.429535E0,5.296192E0,3.3940177E0,0E0,4.0282354E0,4.3717136E0,5.5600886E0,3.781742E0,3.616549E0,1.9470251E0,4.441456E0,0E0,1.2050352E0,5.927434E0,6.0590615E0,5.394532E0,6.0286255E0,5.26528E0,3.0920749E0,1.1449722E1,4.6672463E0,0E0,3.494484E0,3.9806108E0,2.643184E0,0E0,3.1070747E0,4.748112E0,0E0,2.769808E0,4.1737123E0,5.2961993E0,4.2414412E0,7.541731E0,4.9387436E0,1.1365309E1,5.6685376E0,2.8043492E0,3.2636125E0,2.2811193E0,2.2483003E0,3.3025932E0,0E0,0E0,0E0,0E0,0E0,0E0,0E0,0E0,0E0,0E0,0E0,0E0,0E0,0E0,0E0,0E0,0E0,0E0,0E0,0E0,0E0,0E0,0E0,0E0,0E0,0E0,0E0,0E0,0E0,0E0,0E0,0E0,0E0,0E0,0E0,0E0],"parents":[2147483647,0,0,1,1,2,2,3,3,4,4,5,5,7,7,8,8,9,9,10,10,11,11,12,12,13,13,15,15,16,16,17,17,18,18,19,19,20,20,21,21,22,22,23,23,25,25,26,26,27,27,29,29,30,30,32,32,33,33,34,34,35,35,36,36,37,37,38,38,39,39,40,40,41,41,42,42,43,43,44,44],"right_children":[2,4,6,8,10,12,-1,14,16,18,20,22,24,26,-1,28,30,32,34,36,38,40,42,44,-1,46,48,50,-1,52,54,-1,56,58,60,62,64,66,68,70,72,74,76,78,80,-1,-1,-1,-1,-1,-1,-1,-1,-1,-1,-1,-1,-1,-1,-1,-1,-1,-1,-1,-1,-1,-1,-1,-1,-1,-1,-1,-1,-1,-1,-1,-1,-1,-1,-1,-1],"split_conditions":[3.554469E-1,-2.6448396E-1,7.5585747E0,2.5608674E-1,-9.0549827E-1,3.6014155E-1,3.856311E-1,1.5982231E0,-2.5058088E-1,-6.6271764E-1,-1.7611992E-1,1.9777519E-1,6.5073746E-1,6.4186305E-1,-2.717651E-1,7.0673424E-1,-1.6996878E-1,-1.3907693E-1,-2.1141952E-1,-1.7905624E-1,3.512568E-1,9.8162726E-2,-5.2670117E-2,7.237704E-2,-2.939127E-1,3.0934336E0,-2.8278473E-1,-7.021263E-1,-3.1917945E-1,1.2346916E0,2.727889E-1,-3.0791345E-1,-1.1717999E0,-3.2332945E-1,-1.7525302E-1,-1.0647565E-1,-1.0937229E-1,-7.121778E-2,-1.788914E-1,1.7760878E0,2.6187396E-1,6.511014E-2,1.574625E0,-3.1223798E-1,2.1536735E-1,9.692021E-3,2.4498463E-1,4.2434508E-1,-9.1379255E-2,7.168491E-2,-2.089546E-1,2.690302E-1,-8.783928E-2,-2.955197E-1,1.3084017E-1,-2.058967E-1,1.756427E-1,1.9180338E-1,-1.5952492E-2,2.0180605E-1,-5.4302167E-2,-4.3893274E-2,1.716356E-2,4.792771E-1,-2.0090659E-1,-5.886346E-2,-1.3907064E-1,3.5772648E-1,-4.206364E-2,2.1121673E-2,1.5990639E-1,-5.8647607E-2,7.488425E-2,2.9931912E-2,-2.9717934E-1,3.5816482E-1,1.1625491E-2,-3.0347604E-1,-6.569272E-2,3.2888567E-1,-2.2278894E-2],"split_indices":[1,6,6,9,2,5,0,5,8,1,7,5,6,5,0,3,5,6,7,7,0,6,3,6,0,3,7,0,0,2,3,0,1,1,9,6,6,4,6,0,4,4,3,8,7,0,0,0,0,0,0,0,0,0,0,0,0,0,0,0,0,0,0,0,0,0,0,0,0,0,0,0,0,0,0,0,0,0,0,0,0],"split_type":[0,0,0,0,0,0,0,0,0,0,0,0,0,0,0,0,0,0,0,0,0,0,0,0,0,0,0,0,0,0,0,0,0,0,0,0,0,0,0,0,0,0,0,0,0,0,0,0,0,0,0,0,0,0,0,0,0,0,0,0,0,0,0,0,0,0,0,0,0,0,0,0,0,0,0,0,0,0,0,0,0],"sum_hessian":[3.4474922E3,2.172872E3,1.2746199E3,7.822254E2,1.3906469E3,1.2730187E3,1.601256E0,7.464959E2,3.57295E1,1.8125195E2,1.2093949E3,1.243786E3,2.9232603E1,7.4301544E2,3.4804494E0,1.7882465E1,1.7847034E1,1.4796295E1,1.6645566E2,6.089833E2,6.004116E2,1.2202284E3,2.3557617E1,2.6810015E1,2.422588E0,7.3818774E2,4.827677E0,1.3120649E1,4.761817E0,9.11269E0,8.734345E0,8.694383E0,6.1019125E0,1.3212047E2,3.4335186E1,6.0402826E2,4.9550166E0,2.953658E2,3.0504578E2,1.1309176E3,8.9310776E1,1.014495E1,1.3412667E1,1.8084793E1,8.725221E0,7.3346027E2,4.727511E0,3.3118403E0,1.5158364E0,3.6611724E0,9.459477E0,6.5912647E0,2.5214245E0,5.87012E0,2.8642256E0,1.5240096E0,4.577903E0,8.355413E0,1.2376505E2,2.470674E1,9.628446E0,4.740856E2,1.2994264E2,3.4426327E0,1.5123842E0,1.821482E2,1.1321762E2,5.5463324E0,2.9949945E2,1.1047482E3,2.6169487E1,7.269687E1,1.6613909E1,6.658056E0,3.4868946E0,1.1348899E1,2.0637686E0,4.2626314E0,1.3822163E1,3.041828E0,5.683393E0],"tree_param":{"num_deleted":"0","num_feature":"10","num_nodes":"81","size_leaf_vector":"1"}},{"base_weights":[-1.4718299E-2,-4.2350713E-2,7.7359244E-2,8.531354E-3,-8.482709E-2,9.84804E-2,-9.407796E-2,8.191866E-2,-5.48498E-2,-1.0867878E-1,1.1035921E-1,8.346863E-2,3.9160034E-1,-6.421611E-1,5.1043103E-3,-6.209664E-3,2.0228687E-1,-6.696274E-1,-2.8541768E-2,-2.8826654E-1,-7.6324604E-2,8.4576553E-1,6.934355E-2,1.0724691E-1,-1.9214645E-1,1.9340281E-1,9.7901714E-1,2.2537938E-1,-8.544639E-1,3.1054044E-1,-1.580493E-1,4.563471E-2,-2.2880888E-1,9.9542326E-1,1.7525071E-1,-8.134139E-1,-1.9243698E-1,1.8865041E-1,-8.6389236E-2,-3.6047924E-1,2.353721E-1,-6.3162655E-2,-4.4054797E-1,-1.21744245E-1,1.0827578E0,-3.012692E-1,1.088682E-1,1.2773883E-1,-1.7093979E-1,-5.6591314E-1,3.4328526E-1,3.7174222E-1,-2.8715068E-1,3.9421168E-1,-3.1272203E-2,-9.252684E-2,1.9848189E-1,-1.1615682E0,-1.5051976E-1,-7.3681307E-1,4.6562833E-1,1.570251E-1,-4.639866E-1,1.0730092E-2,3.8009363E-1,-2.5651523E-1,-1.2935284E-2,4.02481E-1,5.7500634E-2,6.419438E-2,-6.04427E-2,-1.3763879E-1,-3.3425865E-1,8.641845E-2,-2.686353E-1,8.466314E-2,-2.8215602E-2,2.4608573E-2,-5.023833E-2,-2.4030684E-1,-9.4775155E-2,-1.0630554E-1,1.817953E-1,-1.1473566E-2,-6.598156E-2,-1.6310546E-1,1.0398925E-1,1.0214668E-1,5.0018114E-1,5.3490352E-2,-8.323645E-2,3.2308098E-2,1.6567807E-1,6.838778E-2,-1.9827825E-1,-1.1004704E-1,-4.1916388E-1,6.0192845E-4,2.4371456E-1,3.5805237E-1,4.4276375E-2,1.4557809E-1,-1.6949698E-1,-1.1842978E-1,-3.871216E-1,8.424185E-2,-2.3821339E-1,3.034964E-2,-3.4804416E-1,1.8197943E-1,-1.9095707E-1,1.8955606E-1,-8.8559546E-2,-2.8213385E-1,-3.0999478E-2],"categories":[],"categories_nodes":[],"categories_segments":[],"categories_sizes":[],"default_left":[0,0,0,0,0,0,0,0,0,0,0,0,0,0,0,0,0,0,0,0,0,0,0,0,0,0,0,0,0,0,0,0,0,0,0,0,0,0,0,0,0,0,0,0,0,0,0,0,0,0,0,0,0,0,0,0,0,0,0,0,0,0,0,0,0,0,0,0,0,0,0,0,0,0,0,0,0,0,0,0,0,0,0,0,0,0,0,0,0,0,0,0,0,0,0,0,0,0,0,0,0,0,0,0,0,0,0,0,0,0,0,0,0,0,0],"id":9,"left_children":[1,3,5,7,9,11,13,15,17,19,21,23,25,27,29,31,33,35,37,39,41,43,45,47,49,51,53,55,57,59,61,63,65,67,69,71,73,75,77,79,81,83,85,-1,87,-1,89,91,93,95,97,99,101,-1,-1,-1,-1,103,105,107,109,111,113,-1,-1,-1,-1,-1,-1,-1,-1,-1,-1,-1,-1,-1,-1,-1,-1,-1,-1,-1,-1,-1,-1,-1,-1,-1,-1,-1,-1,-1,-1,-1,-1,-1,-1,-1,-1,-1,-1,-1,-1,-1,-1,-1,-1,-1,-1,-1,-1,-1,-1,-1,-1],"loss_changes":[8.678581E0,5.6703544E0,2.860406E0,5.5603113E0,6.668556E0,3.054185E0,4.726038E0,5.8772717E0,1.0356506E1,7.3841085E0,4.6526456E0,4.4024806E0,3.7581863E0,2.645986E0,3.764555E0,3.712212E0,4.846901E0,1.6467133E0,7.7586846E0,7.4289227E0,5.156325E0,2.8603225E0,6.433138E0,3.5342746E0,1.0893169E1,2.3862815E0,3.1520119E0,9.9814653E-1,2.1838236E0,4.614563E0,4.821315E0,3.1002564E0,7.0288544E0,1.8311982E0,3.3648953E0,1.6098948E0,2.756046E0,3.462964E0,6.667465E0,3.1054325E0,5.491371E0,4.0732813E0,3.2369184E0,0E0,2.5279589E0,0E0,3.929283E0,4.8289003E0,8.496852E0,4.760541E0,3.616439E0,3.4775097E0,1.9402579E0,0E0,0E0,0E0,0E0,2.2635174E-1,1.4617348E0,1.457936E0,4.0401244E0,5.558058E0,4.241026E0,0E0,0E0,0E0,0E0,0E0,0E0,0E0,0E0,0E0,0E0,0E0,0E0,0E0,0E0,0E0,0E0,0E0,0E0,0E0,0E0,0E0,0E0,0E0,0E0,0E0,0E0,0E0,0E0,0E0,0E0,0E0,0E0,0E0,0E0,0E0,0E0,0E0,0E0,0E0,0E0,0E0,0E0,0E0,0E0,0E0,0E0,0E0,0E0,0E0,0E0,0E0,0E0],"parents":[2147483647,0,0,1,1,2,2,3,3,4,4,5,5,6,6,7,7,8,8,9,9,10,10,11,11,12,12,13,13,14,14,15,15,16,16,17,17,18,18,19,19,20,20,21,21,22,22,23,23,24,24,25,25,26,26,27,27,28,28,29,29,30,30,31,31,32,32,33,33,34,34,35,35,36,36,37,37,38,38,39,39,40,40,41,41,42,42,44,44,46,46,47,47,48,48,49,49,50,50,51,51,52,52,57,57,58,58,59,59,60,60,61,61,62,62],"right_children":[2,4,6,8,10,12,14,16,18,20,22,24,26,28,30,32,34,36,38,40,42,44,46,48,50,52,54,56,58,60,62,64,66,68,70,72,74,76,78,80,82,84,86,-1,88,-1,90,92,94,96,98,100,102,-1,-1,-1,-1,104,106,108,110,112,114,-1,-1,-1,-1,-1,-1,-1,-1,-1,-1,-1,-1,-1,-1,-1,-1,-1,-1,-1,-1,-1,-1,-1,-1,-1,-1,-1,-1,-1,-1,-1,-1,-1,-1,-1,-1,-1,-1,-1,-1,-1,-1,-1,-1,-1,-1,-1,-1,-1,-1,-1,-1],"split_conditions":[8.6452913E-1,-2.4601696E-1,1.4251652E-3,-2.3810971E-1,1.4661386E0,1.4050302E-1,1.4727743E-1,-8.324117E-1,-7.048242E-1,-2.0677356E-1,-6.940617E-1,-5.2257165E-2,-8.216682E-2,-9.0549827E-1,-2.9572213E-1,-3.397681E-1,-1.1675497E0,-3.2600248E-1,-6.746312E-1,6.4943117E-1,1.0450664E0,-2.3459087E-1,-6.813838E-1,-1.5491181E-2,-2.1468358E-2,5.9824795E-1,5.6597188E-2,9.456556E-2,-2.3402119E-1,-9.2056084E-1,2.2163322E-2,-2.5591108E-1,-3.1899893E-1,-1.6115646E-1,-1.0212551E-1,-7.078198E-1,-2.9702222E-1,-2.735928E-1,-9.0549827E-1,-1.511188E0,-5.201284E-1,1.0984248E0,2.4862351E0,-1.21744245E-1,-2.3810971E-1,-3.012692E-1,3.127764E-1,-9.7485445E-2,-2.498282E-1,-7.755721E-2,1.3166666E0,2.0949088E-1,-2.2849602E-1,3.9421168E-1,-3.1272203E-2,-9.252684E-2,1.9848189E-1,-3.077434E-1,-1.7064036E-1,-1.1375335E0,1.6831113E0,-1.750033E-1,7.237704E-2,1.0730092E-2,3.8009363E-1,-2.5651523E-1,-1.2935284E-2,4.02481E-1,5.7500634E-2,6.419438E-2,-6.04427E-2,-1.3763879E-1,-3.3425865E-1,8.641845E-2,-2.686353E-1,8.466314E-2,-2.8215602E-2,2.4608573E-2,-5.023833E-2,-2.4030684E-1,-9.4775155E-2,-1.0630554E-1,1.817953E-1,-1.1473566E-2,-6.598156E-2,-1.6310546E-1,1.0398925E-1,1.0214668E-1,5.0018114E-1,5.3490352E-2,-8.323645E-2,3.2308098E-2,1.6567807E-1,6.838778E-2,-1.9827825E-1,-1.1004704E-1,-4.1916388E-1,6.0192845E-4,2.4371456E-1,3.5805237E-1,4.4276375E-2,1.4557809E-1,-1.6949698E-1,-1.1842978E-1,-3.871216E-1,8.424185E-2,-2.3821339E-1,3.034964E-2,-3.4804416E-1,1.8197943E-1,-1.9095707E-1,1.8955606E-1,-8.8559546E-2,-2.8213385E-1,-3.0999478E-2],"split_indices":[1,7,5,5,3,8,0,1,0,5,0,8,5,2,6,4,2,4,0,7,5,7,0,4,4,3,4,5,8,3,8,7,4,3,9,0,4,7,2,1,2,2,6,0,5,0,7,8,5,4,0,8,4,0,0,0,0,7,9,3,3,4,6,0,0,0,0,0,0,0,0,0,0,0,0,0,0,0,0,0,0,0,0,0,0,0,0,0,0,0,0,0,0,0,0,0,0,0,0,0,0,0,0,0,0,0,0,0,0,0,0,0,0,0,0],"split_type":[0,0,0,0,0,0,0,0,0,0,0,0,0,0,0,0,0,0,0,0,0,0,0,0,0,0,0,0,0,0,0,0,0,0,0,0,0,0,0,0,0,0,0,0,0,0,0,0,0,0,0,0,0,0,0,0,0,0,0,0,0,0,0,0,0,0,0,0,0,0,0,0,0,0,0,0,0,0,0,0,0,0,0,0,0,0,0,0,0,0,0,0,0,0,0,0,0,0,0,0,0,0,0,0,0,0,0,0,0,0,0,0,0,0,0],"sum_hessian":[3.4086685E3,2.6222676E3,7.864008E2,1.1934471E3,1.4288206E3,7.005217E2,8.587911E1,5.52931E2,6.405161E2,1.273627E3,1.5519356E2,6.676154E2,3.2906338E1,1.2320613E1,7.35585E1,3.19763E2,2.3316801E2,2.5281178E1,6.152349E2,1.9321913E2,1.0804078E3,7.1618476E0,1.4803171E2,6.151547E2,5.246068E1,2.5598509E1,7.30783E0,2.410187E0,9.910426E0,2.5297071E1,4.826143E1,2.600023E2,5.9760727E1,6.5054374E0,2.2666258E2,1.8885908E1,6.39527E0,1.2892317E2,4.863118E2,1.7007626E2,2.3142876E1,1.0438593E3,3.654856E1,1.0268103E0,6.1350374E0,4.389723E0,1.4364198E2,5.7345355E2,4.170119E1,3.0860846E1,2.1599834E1,1.8835026E1,6.763484E0,5.4188776E0,1.8889523E0,1.2156259E0,1.1945611E0,6.447527E0,3.462899E0,2.7789667E0,2.2518105E1,2.4015463E1,2.4245966E1,2.5893948E2,1.0627917E0,1.2843035E1,4.691769E1,4.0792975E0,2.4261396E0,2.0592392E2,2.0738663E1,9.826235E0,9.059672E0,4.149442E0,2.2458277E0,9.686692E1,3.2056248E1,1.5802356E2,3.2828824E2,1.4063923E1,1.5601233E2,8.948215E0,1.4194661E1,9.0177765E2,1.4208159E2,3.2588158E1,3.9604042E0,3.399963E0,2.7350745E0,1.2221502E2,2.1426966E1,5.4879407E2,2.4659449E1,2.3282042E1,1.8419147E1,2.6060764E1,4.80008E0,1.308469E1,8.515144E0,3.1097965E0,1.5725229E1,1.5917541E0,5.1717296E0,1.5120858E0,4.9354415E0,2.410735E0,1.0521641E0,1.1881273E0,1.5908394E0,2.0363194E1,2.1549125E0,1.1521174E1,1.24942875E1,9.753311E0,1.4492654E1],"tree_param":{"num_deleted":"0","num_feature":"10","num_nodes":"115","size_leaf_vector":"1"}},{"base_weights":[-1.15580605E-2,-4.2071458E-2,3.9415147E-2,1.0686122E-2,-8.697957E-2,3.701214E-2,9.7046E-1,4.0315473E-4,5.278072E-1,-1.059711E-2,-1.391412E-1,3.973216E-2,-8.1267005E-1,6.784602E-2,3.6780572E-1,3.2206297E-2,-1.7080136E-1,-2.216918E-1,1.2218776E0,7.268032E-2,-1.8551548E-1,-1.4789307E-1,1.3185674E0,-1.7782319E-1,4.8436433E-2,-3.1481102E-1,-1.7362311E-2,-2.9359851E-2,1.1601303E-1,-2.4266076E-1,2.3506212E-1,6.549174E-1,-7.3036194E-1,1.9411749E0,1.9201934E-1,-2.7645843E-2,4.957795E-1,-2.1409859E-1,4.1879508E-1,5.873156E-1,-1.6190302E-1,4.9993867E-1,1.3958946E-1,3.8130426E-1,-6.399103E-1,-3.8303774E-2,7.9217106E-2,1.5296721E-2,-4.5487143E-2,5.731203E-2,-4.706317E-2,-2.4454023E-1,-5.6487173E-2,2.7388823E-1,-3.9161548E-2,-7.913488E-2,5.241953E-1,-2.0100232E-2,-2.8604853E-1,2.775029E-1,7.108454E-1,-1.7971641E-1,4.0436488E-1,-1.3760127E-2,3.259114E-1,-1.11602865E-1,2.0557955E-1,-3.34805E-2,-1.3941933E-1,2.4818653E-1,-9.898103E-2,-1.9339396E-2,-7.114995E-2,2.3940142E-2,2.4763381E-1,-2.1926463E-1,1.5566625E-1,-3.8795434E-2,3.6074914E-2,2.4775937E-1,2.1441635E-2],"categories":[],"categories_nodes":[],"categories_segments":[],"categories_sizes":[],"default_left":[0,0,0,0,0,0,0,0,0,0,0,0,0,0,0,0,0,0,0,0,0,0,0,0,0,0,0,0,0,0,0,0,0,0,0,0,0,0,0,0,0,0,0,0,0,0,0,0,0,0,0,0,0,0,0,0,0,0,0,0,0,0,0,0,0,0,0,0,0,0,0,0,0,0,0,0,0,0,0,0,0],"id":10,"left_children":[1,3,5,7,9,11,13,15,17,19,21,23,25,-1,-1,27,29,31,33,35,37,39,41,43,45,-1,-1,47,49,51,53,55,57,59,61,63,65,67,-1,69,71,-1,-1,73,75,77,79,-1,-1,-1,-1,-1,-1,-1,-1,-1,-1,-1,-1,-1,-1,-1,-1,-1,-1,-1,-1,-1,-1,-1,-1,-1,-1,-1,-1,-1,-1,-1,-1,-1,-1],"loss_changes":[5.253886E0,5.006757E0,2.7942867E0,5.1705847E0,4.5462646E0,2.9507856E0,3.3463168E-1,5.202307E0,1.0133198E1,6.776279E0,8.846896E0,2.3940835E0,6.675186E-1,0E0,0E0,4.160872E0,4.4225307E0,4.9203033E0,7.032631E0,1.3394969E1,7.080533E0,7.047985E0,4.5597982E-1,1.2820106E1,3.2390802E0,0E0,0E0,4.5789E0,7.0208097E0,3.8199577E0,5.825254E0,4.6610703E0,9.391694E-1,3.2215118E-1,5.581143E0,5.241528E0,1.0199131E1,3.7559361E0,0E0,3.098936E0,4.8482075E0,0E0,0E0,2.9674335E0,3.2280455E0,4.6063247E0,5.116042E0,0E0,0E0,0E0,0E0,0E0,0E0,0E0,0E0,0E0,0E0,0E0,0E0,0E0,0E0,0E0,0E0,0E0,0E0,0E0,0E0,0E0,0E0,0E0,0E0,0E0,0E0,0E0,0E0,0E0,0E0,0E0,0E0,0E0,0E0],"parents":[2147483647,0,0,1,1,2,2,3,3,4,4,5,5,6,6,7,7,8,8,9,9,10,10,11,11,12,12,15,15,16,16,17,17,18,18,19,19,20,20,21,21,22,22,23,23,24,24,27,27,28,28,29,29,30,30,31,31,32,32,33,33,34,34,35,35,36,36,37,37,39,39,40,40,43,43,44,44,45,45,46,46],"right_children":[2,4,6,8,10,12,14,16,18,20,22,24,26,-1,-1,28,30,32,34,36,38,40,42,44,46,-1,-1,48,50,52,54,56,58,60,62,64,66,68,-1,70,72,-1,-1,74,76,78,80,-1,-1,-1,-1,-1,-1,-1,-1,-1,-1,-1,-1,-1,-1,-1,-1,-1,-1,-1,-1,-1,-1,-1,-1,-1,-1,-1,-1,-1,-1,-1,-1,-1,-1],"split_conditions":[3.554469E-1,-1.9223393E-1,5.243259E0,-1.9436063E-1,1.8575281E-1,5.961832E0,8.201528E-2,-2.2080296E-1,-2.377489E-1,5.984407E-2,5.961832E0,-1.3545061E0,-1.1522331E-1,6.784602E-2,3.6780572E-1,-2.992782E-1,1.8575281E-1,-6.763358E-1,-2.2701767E-1,-3.4786165E-1,2.4425156E0,-2.7112114E-1,1.4067206E0,-4.2788893E-1,-2.9778546E-1,-3.1481102E-1,-1.7362311E-2,-3.4145862E-1,4.818331E-1,-2.0937687E-1,-2.1063633E-1,-2.5403485E-1,-2.9037654E-1,-2.299299E-1,-1.8627496E-1,1.6707579E0,-2.7465057E-1,-2.93011E-1,4.1879508E-1,7.9012895E-1,-5.201284E-1,4.9993867E-1,1.3958946E-1,-2.6073655E-1,2.56147E0,1.8826936E0,-2.9076385E-1,1.5296721E-2,-4.5487143E-2,5.731203E-2,-4.706317E-2,-2.4454023E-1,-5.6487173E-2,2.7388823E-1,-3.9161548E-2,-7.913488E-2,5.241953E-1,-2.0100232E-2,-2.8604853E-1,2.775029E-1,7.108454E-1,-1.7971641E-1,4.0436488E-1,-1.3760127E-2,3.259114E-1,-1.11602865E-1,2.0557955E-1,-3.34805E-2,-1.3941933E-1,2.4818653E-1,-9.898103E-2,-1.9339396E-2,-7.114995E-2,2.3940142E-2,2.4763381E-1,-2.1926463E-1,1.5566625E-1,-3.8795434E-2,3.6074914E-2,2.4775937E-1,2.1441635E-2],"split_indices":[1,5,6,5,1,9,4,7,9,5,9,3,8,0,0,8,1,0,8,0,3,4,2,0,7,0,0,4,2,7,5,4,8,9,6,7,6,0,0,2,2,0,0,4,1,1,7,0,0,0,0,0,0,0,0,0,0,0,0,0,0,0,0,0,0,0,0,0,0,0,0,0,0,0,0,0,0,0,0,0,0],"split_type":[0,0,0,0,0,0,0,0,0,0,0,0,0,0,0,0,0,0,0,0,0,0,0,0,0,0,0,0,0,0,0,0,0,0,0,0,0,0,0,0,0,0,0,0,0,0,0,0,0,0,0,0,0,0,0,0,0,0,0,0,0,0,0,0,0,0,0,0,0,0,0,0,0,0,0,0,0,0,0,0,0],"sum_hessian":[3.3758445E3,2.1118381E3,1.2640063E3,9.7140436E2,1.1404337E3,1.2617894E3,2.2168963E0,9.5344586E2,1.7958519E1,4.6326242E2,6.771713E2,1.2587133E3,3.0761762E0,1.0484011E0,1.168495E0,8.047639E2,1.4868198E2,8.961713E0,8.996805E0,3.142396E2,1.4902281E2,6.7402313E2,3.1481922E0,4.767562E1,1.2110376E3,2.044699E0,1.0314773E0,4.6431686E2,3.4044705E2,1.2665875E2,2.2023216E1,3.1851401E0,5.776573E0,4.7760863E0,4.2207184E0,2.5476408E2,5.947553E1,1.4722655E2,1.7962655E0,1.1838633E1,6.621845E2,1.5593729E0,1.5888191E0,2.165174E1,2.602388E1,3.171269E2,8.939107E2,2.805374E2,1.8377945E2,2.6726617E2,7.318087E1,9.77229E0,1.1688646E2,7.191516E0,1.4831701E1,2.142143E0,1.042997E0,1.7812618E0,3.9953113E0,2.353079E0,2.4230072E0,2.7917604E0,1.428958E0,2.5160753E2,3.156552E0,1.0486615E1,4.898891E1,1.05519356E2,4.1707188E1,9.461407E0,2.377226E0,2.893891E2,3.7279538E2,1.359947E1,8.05227E0,2.4471977E1,1.5519044E0,2.0159175E2,1.1553515E2,8.092884E0,8.858179E2],"tree_param":{"num_deleted":"0","num_feature":"10","num_nodes":"81","size_leaf_vector":"1"}},{"base_weights":[-8.558361E-3,-4.3337215E-2,2.9777404E-2,-3.6959436E-2,-4.7314158E-1,-8.023169E-2,5.1741563E-2,-4.804456E-2,2.818159E-1,-2.6938323E-2,-6.797439E-1,9.78611E-2,-2.908869E-1,7.0672296E-2,-1.1717449E-1,-1.5891662E-2,-1.6988823E-1,8.339932E-1,1.06629156E-1,-4.6791363E-1,8.1448764E-1,-8.091073E-1,2.8801844E-2,2.5920825E-2,6.7495835E-1,-3.2404014E-1,4.9291414E-1,8.26464E-2,-1.7268816E-1,-2.7118477E-1,2.546127E-1,-2.2006966E-2,1.0726713E0,-1.493762E-1,-9.20338E-1,3.0776438E-1,1.2559721E0,-4.449551E-1,4.1513246E-1,-8.2107496E-1,1.5127224E-1,4.1619894E-1,-7.305507E-2,-9.1881466E-1,8.0291376E-2,2.072633E-1,-1.8466245E-1,1.4458358E-1,-3.8718948E-1,1.2410655E0,-1.5298362E-1,-4.2078733E-1,-1.3015173E-1,-3.8237208E-1,4.8690736E-1,7.526192E-2,8.1712365E-1,4.6693766E-1,-3.2379794E-1,-3.8728815E-1,2.7294597E-1,6.9589454E-1,-1.3344976E-1,-9.658816E-3,7.116997E-2,4.6144444E-1,-1.1681274E-1,-1.6356826E-1,-3.447495E-2,-8.149462E-2,-2.919241E-1,2.5677848E-1,-1.5943798E-1,5.4592985E-1,6.8032704E-2,4.0955093E-2,-2.3884888E-1,2.2990221E-1,-1.5036191E-1,-5.167732E-2,-2.8919438E-1,-1.6736892E-1,-3.1460643E-1,9.451475E-2,-3.2916237E-2,-1.6856548E-1,1.2646411E-1,1.6503847E-1,6.2844634E-1,1.9405343E-1,-2.3173885E-1,-1.476044E-1,5.0787997E-2,1.6455795E-1,-1.0322389E-1,-2.3316298E-1,9.0771794E-2,2.0266145E-2,2.0696385E-1,3.727934E-1,-1.140339E-1,-8.56711E-2,4.2867196E-1,-1.3016026E-1,1.4911829E-1,4.3578264E-3,-1.6094819E-1,1.4286825E-1,-2.3815921E-1,4.8982937E-2,4.2864424E-1,5.371363E-3,-2.2132803E-1],"categories":[],"categories_nodes":[],"categories_segments":[],"categories_sizes":[],"default_left":[0,0,0,0,0,0,0,0,0,0,0,0,0,0,0,0,0,0,0,0,0,0,0,0,0,0,0,0,0,0,0,0,0,0,0,0,0,0,0,0,0,0,0,0,0,0,0,0,0,0,0,0,0,0,0,0,0,0,0,0,0,0,0,0,0,0,0,0,0,0,0,0,0,0,0,0,0,0,0,0,0,0,0,0,0,0,0,0,0,0,0,0,0,0,0,0,0,0,0,0,0,0,0,0,0,0,0,0,0,0,0,0,0],"id":11,"left_children":[1,3,5,7,9,11,13,15,17,19,21,23,25,27,29,31,33,35,37,39,41,43,45,47,49,51,53,55,57,59,61,63,65,67,69,71,73,75,77,79,-1,-1,-1,81,-1,-1,-1,83,85,87,89,91,93,95,-1,97,99,101,103,105,107,109,111,-1,-1,-1,-1,-1,-1,-1,-1,-1,-1,-1,-1,-1,-1,-1,-1,-1,-1,-1,-1,-1,-1,-1,-1,-1,-1,-1,-1,-1,-1,-1,-1,-1,-1,-1,-1,-1,-1,-1,-1,-1,-1,-1,-1,-1,-1,-1,-1,-1,-1],"loss_changes":[4.468669E0,4.799485E0,3.8567073E0,6.136113E0,2.3425407E0,9.998446E0,4.2602043E0,6.560383E0,5.55763E0,3.7748084E0,1.6239824E0,5.9921894E0,3.329894E0,3.5003247E0,7.763408E0,8.854602E0,5.2451715E0,2.7028046E0,7.9203677E0,2.6924376E0,2.4651213E0,1.9943647E0,1.9873804E0,6.4163904E0,7.6913767E0,2.152131E0,5.9101725E0,6.126316E0,5.604895E0,6.1390805E0,6.9214573E0,3.4947433E0,5.656066E0,4.5966215E0,4.7335148E-2,3.9124813E0,3.8791208E0,3.5371902E0,9.933013E0,3.20575E-1,0E0,0E0,0E0,5.5161476E-2,0E0,0E0,0E0,4.4356613E0,4.365822E0,4.519497E0,4.161053E0,3.3632488E0,6.0850205E0,1.2690144E0,0E0,5.3097553E0,6.206109E0,8.5100765E0,4.3928666E0,4.751341E0,4.147302E0,7.113229E0,2.0306163E0,0E0,0E0,0E0,0E0,0E0,0E0,0E0,0E0,0E0,0E0,0E0,0E0,0E0,0E0,0E0,0E0,0E0,0E0,0E0,0E0,0E0,0E0,0E0,0E0,0E0,0E0,0E0,0E0,0E0,0E0,0E0,0E0,0E0,0E0,0E0,0E0,0E0,0E0,0E0,0E0,0E0,0E0,0E0,0E0,0E0,0E0,0E0,0E0,0E0,0E0],"parents":[2147483647,0,0,1,1,2,2,3,3,4,4,5,5,6,6,7,7,8,8,9,9,10,10,11,11,12,12,13,13,14,14,15,15,16,16,17,17,18,18,19,19,20,20,21,21,22,22,23,23,24,24,25,25,26,26,27,27,28,28,29,29,30,30,31,31,32,32,33,33,34,34,35,35,36,36,37,37,38,38,39,39,43,43,47,47,48,48,49,49,50,50,51,51,52,52,53,53,55,55,56,56,57,57,58,58,59,59,60,60,61,61,62,62],"right_children":[2,4,6,8,10,12,14,16,18,20,22,24,26,28,30,32,34,36,38,40,42,44,46,48,50,52,54,56,58,60,62,64,66,68,70,72,74,76,78,80,-1,-1,-1,82,-1,-1,-1,84,86,88,90,92,94,96,-1,98,100,102,104,106,108,110,112,-1,-1,-1,-1,-1,-1,-1,-1,-1,-1,-1,-1,-1,-1,-1,-1,-1,-1,-1,-1,-1,-1,-1,-1,-1,-1,-1,-1,-1,-1,-1,-1,-1,-1,-1,-1,-1,-1,-1,-1,-1,-1,-1,-1,-1,-1,-1,-1,-1,-1],"split_conditions":[-5.2670117E-2,1.4204198E0,-8.324117E-1,4.0363568E-1,-2.8890654E-1,-7.035807E-1,2.0085704E0,-1.017678E-1,-5.327425E-1,-1.3180697E-1,8.409299E-1,-7.0585173E-1,2.4425156E0,3.940384E-1,-1.4395735E-1,4.2676654E0,2.2545342E0,6.844422E-1,1.7353725E-1,-5.2257165E-2,1.3208333E-2,2.8276258E0,3.811237E-1,-7.1008825E-1,7.13055E-1,-1.6872425E-1,1.0984248E0,2.3511908E0,-4.859275E-1,1.5433055E0,-1.959593E-2,-1.3612147E-1,-2.2106983E-1,-1.0001691E-1,-8.120745E-1,-2.1646233E-1,-2.3983422E-1,-2.3662387E-1,4.9748573E-1,2.073079E0,1.5127224E-1,4.1619894E-1,-7.305507E-2,1.6058717E-2,8.0291376E-2,2.072633E-1,-1.8466245E-1,9.2370695E-1,1.6831113E0,-2.8005034E-1,4.897616E-1,1.7178974E-1,-9.3617104E-2,-1.5933533E-1,4.8690736E-1,1.7712016E0,5.533804E-2,7.079207E-1,5.2370844E0,-2.8725302E-1,3.4099405E0,-9.071148E-2,4.2940086E-1,-9.658816E-3,7.116997E-2,4.6144444E-1,-1.1681274E-1,-1.6356826E-1,-3.447495E-2,-8.149462E-2,-2.919241E-1,2.5677848E-1,-1.5943798E-1,5.4592985E-1,6.8032704E-2,4.0955093E-2,-2.3884888E-1,2.2990221E-1,-1.5036191E-1,-5.167732E-2,-2.8919438E-1,-1.6736892E-1,-3.1460643E-1,9.451475E-2,-3.2916237E-2,-1.6856548E-1,1.2646411E-1,1.6503847E-1,6.2844634E-1,1.9405343E-1,-2.3173885E-1,-1.476044E-1,5.0787997E-2,1.6455795E-1,-1.0322389E-1,-2.3316298E-1,9.0771794E-2,2.0266145E-2,2.0696385E-1,3.727934E-1,-1.140339E-1,-8.56711E-2,4.2867196E-1,-1.3016026E-1,1.4911829E-1,4.3578264E-3,-1.6094819E-1,1.4286825E-1,-2.3815921E-1,4.8982937E-2,4.2864424E-1,5.371363E-3,-2.2132803E-1],"split_indices":[3,4,1,4,2,0,3,4,0,6,7,0,3,5,8,8,2,4,2,8,0,8,6,0,2,4,2,8,0,1,8,4,4,4,3,7,6,9,8,4,0,0,0,1,0,0,0,3,3,9,3,8,4,5,0,4,6,5,0,7,1,7,6,0,0,0,0,0,0,0,0,0,0,0,0,0,0,0,0,0,0,0,0,0,0,0,0,0,0,0,0,0,0,0,0,0,0,0,0,0,0,0,0,0,0,0,0,0,0,0,0,0,0],"split_type":[0,0,0,0,0,0,0,0,0,0,0,0,0,0,0,0,0,0,0,0,0,0,0,0,0,0,0,0,0,0,0,0,0,0,0,0,0,0,0,0,0,0,0,0,0,0,0,0,0,0,0,0,0,0,0,0,0,0,0,0,0,0,0,0,0,0,0,0,0,0,0,0,0,0,0,0,0,0,0,0,0,0,0,0,0,0,0,0,0,0,0,0,0,0,0,0,0,0,0,0,0,0,0,0,0,0,0,0,0,0,0,0,0],"sum_hessian":[3.3496829E3,1.7562515E3,1.5934314E3,1.731642E3,2.4609488E1,2.6475146E2,1.3286799E3,1.67427E3,5.7371937E1,8.14625E0,1.6463238E1,1.4375398E2,1.2099749E2,1.1953019E3,1.3337805E2,1.3255941E3,3.4867593E2,1.2912374E1,4.4459564E1,5.636285E0,2.5099654E0,1.380149E1,2.6617472E0,1.2874918E2,1.5004808E1,1.1665001E2,4.3474865E0,1.1398767E3,5.542516E1,9.450189E1,3.8876167E1,1.3191631E3,6.4309816E0,3.4056628E2,8.109643E0,6.5159698E0,6.3964033E0,1.5788475E1,2.867109E1,4.24836E0,1.3879247E0,1.4263939E0,1.0835716E0,1.2658422E1,1.143067E0,1.2771894E0,1.3845578E0,1.00524345E2,2.8224833E1,8.615183E0,6.3896255E0,7.703869E1,3.961132E1,2.8228219E0,1.5246644E0,1.1296218E3,1.0254826E1,1.0192352E1,4.5232807E1,7.812112E1,1.6380774E1,1.781956E1,2.1056608E1,1.2701187E3,4.904448E1,4.8384857E0,1.5924959E0,2.6085886E1,3.144804E2,1.0722531E0,7.0373898E0,3.9294386E0,2.5865314E0,3.6362967E0,2.7601066E0,6.175459E0,9.613016E0,2.0845325E1,7.8257637E0,1.1649029E0,3.083457E0,4.7510214E0,7.907401E0,6.0039642E1,4.04847E1,2.3462023E1,4.7628098E0,5.670476E0,2.9447062E0,2.769572E0,3.6200538E0,6.88894E1,8.149293E0,9.118655E0,3.0492666E1,1.7051688E0,1.1176531E0,1.1167266E3,1.2895285E1,7.5378137E0,2.7170115E0,6.113307E0,4.079045E0,4.030035E1,4.932458E0,2.139814E1,5.672298E1,1.4223979E1,2.156794E0,1.1028119E1,6.7914395E0,1.761513E1,3.4414773E0],"tree_param":{"num_deleted":"0","num_feature":"10","num_nodes":"113","size_leaf_vector":"1"}},{"base_weights":[-7.1291267E-3,-1.0888683E-2,2.3675495E-1,2.5688203E-3,-9.4030485E-2,5.393593E-1,-6.1910976E-2,-2.0444652E-1,1.1368093E-2,-1.8477676E-2,-2.5563782E-1,6.57806E-1,-3.320346E-1,1.4192301E-1,-4.28663E-1,-8.301812E-1,-5.4995127E-2,7.052511E-2,-8.3681485E-3,-5.9235543E-2,4.040453E-1,-4.747039E-1,-5.6338355E-2,-1.3431466E-1,7.512119E-1,-2.2511058E-1,1.0527026E-1,-6.3645977E-1,3.1408808E-1,-8.1854516E-1,3.3285767E-1,-8.795605E-1,-5.1958874E-2,2.2794321E-1,-1.9091815E-1,1.2614086E-2,1.838272E-1,1.089832E0,-1.0061043E-2,1.4314191E-2,-5.4706186E-1,6.766001E-1,-4.9058625E-1,-1.0190633E-1,-6.5247715E-1,7.678257E-1,-1.7922135E-1,1.1124314E0,3.826591E-1,3.885266E-2,-3.0549368E-1,9.3515426E-1,-2.2088458E-1,-3.7357747E-3,-2.9565436E-1,-4.877658E-2,2.6858324E-1,-1.1767269E-1,-2.786485E-1,-1.6874574E-2,3.799282E-1,2.0711638E-3,-1.5156102E-1,1.5960384E-2,-8.997968E-2,4.7943898E-2,2.571051E-1,8.393962E-2,4.214409E-1,-6.6686526E-2,-4.2648523E-4,-3.8168907E-2,4.421391E-2,-1.8787941E-1,1.7264834E-1,3.9561167E-2,3.3933583E-1,1.0709576E-1,-2.1272369E-1,1.3251275E-1,-2.0160693E-1,-2.1153258E-1,1.614978E-1,2.479799E-2,4.4104326E-1,-2.2593316E-2,-1.9060402E-1,-8.732456E-3,3.983899E-1,3.288723E-2,2.9223102E-1,-8.842398E-2,3.6320084E-1,-2.9808593E-1,1.8751647E-1],"categories":[],"categories_nodes":[],"categories_segments":[],"categories_sizes":[],"default_left":[0,0,0,0,0,0,0,0,0,0,0,0,0,0,0,0,0,0,0,0,0,0,0,0,0,0,0,0,0,0,0,0,0,0,0,0,0,0,0,0,0,0,0,0,0,0,0,0,0,0,0,0,0,0,0,0,0,0,0,0,0,0,0,0,0,0,0,0,0,0,0,0,0,0,0,0,0,0,0,0,0,0,0,0,0,0,0,0,0,0,0,0,0,0,0],"id":12,"left_children":[1,3,5,7,9,11,13,15,17,19,21,23,25,27,29,31,33,35,37,39,41,43,45,-1,47,-1,-1,49,51,53,55,57,-1,59,61,63,65,67,69,71,73,75,77,79,81,83,85,87,89,-1,-1,91,93,-1,-1,-1,-1,-1,-1,-1,-1,-1,-1,-1,-1,-1,-1,-1,-1,-1,-1,-1,-1,-1,-1,-1,-1,-1,-1,-1,-1,-1,-1,-1,-1,-1,-1,-1,-1,-1,-1,-1,-1,-1,-1],"loss_changes":[3.0647085E0,3.6812775E0,4.6195645E0,5.1620917E0,5.591739E0,2.830658E0,2.0370638E0,1.0759599E1,3.173989E0,5.4212675E0,6.345028E0,2.6717024E0,1.3184059E0,2.5776563E0,3.1501803E0,5.680294E-1,3.6715605E0,4.459844E0,3.8016894E0,1.0294927E1,7.0864096E0,4.5321207E0,7.991858E0,0E0,2.4002914E0,0E0,0E0,1.1684794E0,5.256471E0,8.894367E-1,1.2581842E0,1.2564373E-1,0E0,9.240619E0,3.9992585E0,5.738452E0,3.5804195E0,4.0996075E-1,3.7342439E0,4.729715E0,3.7024965E0,5.2118206E0,1.5583831E0,7.6079082E0,3.3126183E0,4.811813E0,3.189356E0,2.5473003E0,1.8361074E0,0E0,0E0,2.8049417E0,6.487497E0,0E0,0E0,0E0,0E0,0E0,0E0,0E0,0E0,0E0,0E0,0E0,0E0,0E0,0E0,0E0,0E0,0E0,0E0,0E0,0E0,0E0,0E0,0E0,0E0,0E0,0E0,0E0,0E0,0E0,0E0,0E0,0E0,0E0,0E0,0E0,0E0,0E0,0E0,0E0,0E0,0E0,0E0],"parents":[2147483647,0,0,1,1,2,2,3,3,4,4,5,5,6,6,7,7,8,8,9,9,10,10,11,11,12,12,13,13,14,14,15,15,16,16,17,17,18,18,19,19,20,20,21,21,22,22,24,24,27,27,28,28,29,29,30,30,31,31,33,33,34,34,35,35,36,36,37,37,38,38,39,39,40,40,41,41,42,42,43,43,44,44,45,45,46,46,47,47,48,48,51,51,52,52],"right_children":[2,4,6,8,10,12,14,16,18,20,22,24,26,28,30,32,34,36,38,40,42,44,46,-1,48,-1,-1,50,52,54,56,58,-1,60,62,64,66,68,70,72,74,76,78,80,82,84,86,88,90,-1,-1,92,94,-1,-1,-1,-1,-1,-1,-1,-1,-1,-1,-1,-1,-1,-1,-1,-1,-1,-1,-1,-1,-1,-1,-1,-1,-1,-1,-1,-1,-1,-1,-1,-1,-1,-1,-1,-1,-1,-1,-1,-1,-1,-1],"split_conditions":[3.3966043E0,7.9012895E-1,3.077555E-1,-1.6808822E0,-1.9746038E-1,8.7371945E-1,2.408682E0,-5.972024E-1,-6.2249684E-1,3.302666E-1,1.1287795E0,8.6720294E-1,4.3789297E-1,3.4992184E-2,7.4761605E-1,1.574625E0,-3.7812912E-1,-3.2332945E-1,-1.511188E0,-9.071148E-2,4.9835202E-1,-1.5556239E-1,-1.1123066E-1,-1.3431466E-1,1.4067206E0,-2.2511058E-1,1.0527026E-1,-1.6115646E-1,4.2940086E-1,1.116318E-1,2.639904E0,-1.0596461E0,-5.1958874E-2,-1.1285193E-1,-6.9296306E-1,-4.9302354E-1,1.371917E-2,-2.9606196E-1,-4.9302354E-1,1.6430256E-1,1.1888697E0,-1.07687116E-1,-2.9992026E-1,5.5816222E-2,3.1574783E0,1.6430256E-1,5.335034E-1,1.3840772E-1,2.408682E0,3.885266E-2,-3.0549368E-1,3.33406E-1,5.5668193E-1,-3.7357747E-3,-2.9565436E-1,-4.877658E-2,2.6858324E-1,-1.1767269E-1,-2.786485E-1,-1.6874574E-2,3.799282E-1,2.0711638E-3,-1.5156102E-1,1.5960384E-2,-8.997968E-2,4.7943898E-2,2.571051E-1,8.393962E-2,4.214409E-1,-6.6686526E-2,-4.2648523E-4,-3.8168907E-2,4.421391E-2,-1.8787941E-1,1.7264834E-1,3.9561167E-2,3.3933583E-1,1.0709576E-1,-2.1272369E-1,1.3251275E-1,-2.0160693E-1,-2.1153258E-1,1.614978E-1,2.479799E-2,4.4104326E-1,-2.2593316E-2,-1.9060402E-1,-8.732456E-3,3.983899E-1,3.288723E-2,2.9223102E-1,-8.842398E-2,3.6320084E-1,-2.9808593E-1,1.8751647E-1],"split_indices":[0,2,5,1,0,4,2,2,0,7,0,2,9,8,9,3,3,1,1,7,6,4,8,0,2,0,0,3,6,9,2,2,0,5,0,1,7,7,1,3,8,5,4,3,5,3,4,9,2,0,0,5,7,0,0,0,0,0,0,0,0,0,0,0,0,0,0,0,0,0,0,0,0,0,0,0,0,0,0,0,0,0,0,0,0,0,0,0,0,0,0,0,0,0,0],"split_type":[0,0,0,0,0,0,0,0,0,0,0,0,0,0,0,0,0,0,0,0,0,0,0,0,0,0,0,0,0,0,0,0,0,0,0,0,0,0,0,0,0,0,0,0,0,0,0,0,0,0,0,0,0,0,0,0,0,0,0,0,0,0,0,0,0,0,0,0,0,0,0,0,0,0,0,0,0,0,0,0,0,0,0,0,0,0,0,0,0,0,0,0,0,0,0],"sum_hessian":[3.3386707E3,3.2889263E3,4.9744568E1,2.8315713E3,4.5735486E2,2.430906E1,2.5435509E1,1.1454331E2,2.717028E3,3.124133E2,1.4494154E2,2.1615957E1,2.6931014E0,1.6743055E1,8.692453E0,2.120514E1,9.333817E1,6.790584E2,2.0379696E3,2.857124E2,2.6700893E1,6.838845E1,7.655309E1,1.3885313E0,2.0227427E1,1.6088537E0,1.0842477E0,2.5440848E0,1.419897E1,5.6995325E0,2.9929204E0,1.9407667E1,1.7974731E0,3.0069105E1,6.3269066E1,4.501095E2,2.2894888E2,2.1474175E0,2.0358223E3,2.4912276E2,3.6589664E1,2.0652653E1,6.048242E0,2.2589859E1,4.5798588E1,9.252054E0,6.730104E1,9.196013E0,1.1031413E1,1.0662017E0,1.4778831E0,6.2246E0,7.9743705E0,1.1623815E0,4.537151E0,1.9691614E0,1.0237591E0,2.6047685E0,1.6802898E1,2.4351032E1,5.718073E0,3.9429073E1,2.3839994E1,3.9911084E2,5.099866E1,2.2225784E2,6.691047E0,1.1299014E0,1.0175161E0,7.86659E1,1.9571564E3,1.2073688E2,1.2838588E2,3.4591164E1,1.9984977E0,9.980915E0,1.0671737E1,1.1096919E0,4.93855E0,1.1678987E1,1.0910872E1,4.4250656E1,1.5479317E0,5.248973E0,4.0030813E0,5.5762787E1,1.1538257E1,1.5979143E0,7.5980988E0,8.358251E0,2.6731627E0,1.126426E0,5.0981736E0,4.0762696E0,3.8981006E0],"tree_param":{"num_deleted":"0","num_feature":"10","num_nodes":"95","size_leaf_vector":"1"}},{"base_weights":[-6.0753208E-3,-1.8235307E-2,5.313224E-2,-5.5673254E-1,-1.6266584E-2,2.7487643E-2,2.6389828E-1,2.2537966E-1,-7.960387E-1,3.4425814E-2,-3.251521E-2,6.6665694E-2,-2.8137356E-1,3.515199E-1,-5.15026E-1,-1.05459385E-1,2.0243639E-1,-9.5858514E-1,-3.0788807E-2,4.193569E-2,-7.3079413E-1,-3.0407822E-1,-2.5819056E-2,7.763517E-2,-1.2282076E0,-5.431762E-1,-7.566225E-2,4.5328036E-1,-3.0460262E-1,-8.7053084E-1,1.8711704E-1,-4.733907E-2,-3.247208E-1,-1.5309099E-2,1.23554595E-1,-8.2567376E-1,-4.163067E-2,-4.607177E-1,4.5856223E-1,-9.775807E-2,-4.25565E-3,5.6016576E-2,4.6665555E-1,-4.4209585E-1,-1.0865475E-1,-8.401701E-1,3.2803342E-1,2.4260703E-1,-5.655954E-1,1.0540023E0,2.1683049E-1,-7.790264E-1,4.7161052E-1,-3.5694313E-1,1.9423127E-2,9.534327E-3,-5.878372E-2,8.2162045E-2,-3.1688695E-3,-4.2196564E-2,-2.8521675E-1,3.6994502E-2,-2.2016762E-1,-1.4666633E-1,2.8869054E-1,1.5973201E-2,-5.8553904E-2,-1.5626436E-2,1.4510825E-2,2.8604891E-2,-5.0619323E-2,2.1574278E-1,-7.078175E-2,-3.098321E-1,4.783082E-2,1.9700292E-1,-1.4578635E-1,-1.3502048E-1,2.3041403E-1,-2.9700665E-2,-3.3738664E-1,3.4345183E-1,6.327818E-2,1.3129029E-1,-4.9911868E-2,-3.0584434E-1,-1.3704957E-3,3.411526E-1,-1.5077373E-1],"categories":[],"categories_nodes":[],"categories_segments":[],"categories_sizes":[],"default_left":[0,0,0,0,0,0,0,0,0,0,0,0,0,0,0,0,0,0,0,0,0,0,0,0,0,0,0,0,0,0,0,0,0,0,0,0,0,0,0,0,0,0,0,0,0,0,0,0,0,0,0,0,0,0,0,0,0,0,0,0,0,0,0,0,0,0,0,0,0,0,0,0,0,0,0,0,0,0,0,0,0,0,0,0,0,0,0,0,0],"id":13,"left_children":[1,3,5,7,9,11,13,15,17,19,21,23,25,27,29,-1,-1,31,-1,33,35,37,39,41,43,45,47,49,51,53,-1,-1,-1,55,57,59,-1,61,63,65,67,69,71,-1,-1,73,75,77,79,81,83,85,87,-1,-1,-1,-1,-1,-1,-1,-1,-1,-1,-1,-1,-1,-1,-1,-1,-1,-1,-1,-1,-1,-1,-1,-1,-1,-1,-1,-1,-1,-1,-1,-1,-1,-1,-1,-1],"loss_changes":[2.396915E0,2.9186559E0,3.0588803E0,2.056557E0,2.268359E0,6.152028E0,4.372921E0,1.0484905E0,7.920728E-1,3.8729959E0,3.7834787E0,6.4958515E0,3.042006E0,3.8638768E0,3.2213688E0,0E0,0E0,4.5188332E-1,0E0,3.0999026E0,2.5347304E-1,6.19385E0,3.1577258E0,3.7395985E0,2.8350735E-1,6.7513614E0,5.3171988E0,6.690563E0,3.3468287E0,1.7072992E0,0E0,0E0,0E0,3.3288803E0,5.515762E0,3.327198E-1,0E0,6.798607E0,4.78236E0,6.9166136E0,3.9479706E0,3.775998E0,4.327259E0,0E0,0E0,3.8122234E0,2.213634E0,7.9297357E0,3.379218E0,7.923231E-1,3.1368866E0,1.0006847E0,2.9654114E0,0E0,0E0,0E0,0E0,0E0,0E0,0E0,0E0,0E0,0E0,0E0,0E0,0E0,0E0,0E0,0E0,0E0,0E0,0E0,0E0,0E0,0E0,0E0,0E0,0E0,0E0,0E0,0E0,0E0,0E0,0E0,0E0,0E0,0E0,0E0,0E0],"parents":[2147483647,0,0,1,1,2,2,3,3,4,4,5,5,6,6,7,7,8,8,9,9,10,10,11,11,12,12,13,13,14,14,17,17,19,19,20,20,21,21,22,22,23,23,24,24,25,25,26,26,27,27,28,28,29,29,33,33,34,34,35,35,37,37,38,38,39,39,40,40,41,41,42,42,45,45,46,46,47,47,48,48,49,49,50,50,51,51,52,52],"right_children":[2,4,6,8,10,12,14,16,18,20,22,24,26,28,30,-1,-1,32,-1,34,36,38,40,42,44,46,48,50,52,54,-1,-1,-1,56,58,60,-1,62,64,66,68,70,72,-1,-1,74,76,78,80,82,84,86,88,-1,-1,-1,-1,-1,-1,-1,-1,-1,-1,-1,-1,-1,-1,-1,-1,-1,-1,-1,-1,-1,-1,-1,-1,-1,-1,-1,-1,-1,-1,-1,-1,-1,-1,-1,-1],"split_conditions":[1.2039174E0,-1.4629925E0,1.2222699E0,-1.1675497E0,-2.964037E-1,-5.78207E-2,1.574625E0,-2.9606196E-1,-1.6745147E-1,2.5192142E0,-2.858963E-1,1.1287795E0,-5.201284E-1,3.33406E-1,3.8637573E-1,-1.05459385E-1,2.0243639E-1,-6.4838225E-1,-3.0788807E-2,-6.6271764E-1,1.5608686E0,1.1406796E0,-2.0677356E-1,-1.1522331E-1,-3.771706E-2,-1.1391602E-1,-5.0474145E-2,-4.0003642E-2,1.00887686E-1,9.456556E-2,1.8711704E-1,-4.733907E-2,-3.247208E-1,-6.841581E-1,-2.821464E-1,-7.035881E-1,-4.163067E-2,-2.9068196E-1,-3.0301976E-1,-2.7397513E-1,-5.2670117E-2,-1.05083E-1,-1.19936466E-1,-4.4209585E-1,-1.0865475E-1,8.152206E-1,7.237704E-2,4.0081464E-5,-2.42187E-1,3.3866456E-1,1.1968866E-1,7.237704E-2,1.8826936E0,-3.5694313E-1,1.9423127E-2,9.534327E-3,-5.878372E-2,8.2162045E-2,-3.1688695E-3,-4.2196564E-2,-2.8521675E-1,3.6994502E-2,-2.2016762E-1,-1.4666633E-1,2.8869054E-1,1.5973201E-2,-5.8553904E-2,-1.5626436E-2,1.4510825E-2,2.8604891E-2,-5.0619323E-2,2.1574278E-1,-7.078175E-2,-3.098321E-1,4.783082E-2,1.9700292E-1,-1.4578635E-1,-1.3502048E-1,2.3041403E-1,-2.9700665E-2,-3.3738664E-1,3.4345183E-1,6.327818E-2,1.3129029E-1,-4.9911868E-2,-3.0584434E-1,-1.3704957E-3,3.411526E-1,-1.5077373E-1],"split_indices":[1,3,0,2,6,8,3,7,5,9,6,0,2,5,7,0,0,0,0,1,2,3,5,8,9,6,6,4,9,5,0,0,0,0,7,3,0,9,7,9,3,5,6,0,0,3,6,8,7,9,6,6,1,0,0,0,0,0,0,0,0,0,0,0,0,0,0,0,0,0,0,0,0,0,0,0,0,0,0,0,0,0,0,0,0,0,0,0,0],"split_type":[0,0,0,0,0,0,0,0,0,0,0,0,0,0,0,0,0,0,0,0,0,0,0,0,0,0,0,0,0,0,0,0,0,0,0,0,0,0,0,0,0,0,0,0,0,0,0,0,0,0,0,0,0,0,0,0,0,0,0,0,0,0,0,0,0,0,0,0,0,0,0,0,0,0,0,0,0,0,0,0,0,0,0,0,0,0,0,0,0],"sum_hessian":[3.326873E3,2.7605967E3,5.662764E2,9.029406E0,2.7515671E3,5.058575E2,6.0418926E1,2.1291165E0,6.900289E0,6.676176E2,2.0839495E3,4.4961008E2,5.6247437E1,5.4802834E1,5.616091E0,1.0276722E0,1.1014444E0,5.2801194E0,1.6201698E0,6.620653E2,5.5523167E0,4.908038E1,2.0348691E3,4.4676538E2,2.8447125E0,2.4027666E1,3.2219772E1,4.7712135E1,7.0906982E0,4.4594407E0,1.15665E0,1.0116584E0,4.268461E0,3.8961484E2,2.7245047E2,4.4452496E0,1.1070673E0,4.1045826E1,8.034554E0,4.68464E2,1.5664052E3,4.2432864E2,2.243674E1,1.6698284E0,1.1748841E0,1.7945652E1,6.0820146E0,1.9837679E1,1.23820915E1,1.2499198E1,3.521294E1,4.3986225E0,2.6920753E0,3.1216395E0,1.3378012E0,3.0970248E2,7.991233E1,1.2797454E2,1.4447592E2,1.0142081E0,3.4310415E0,1.3255286E1,2.7790539E1,2.7992027E0,5.2353506E0,1.8389026E2,2.8457373E2,8.2057275E2,7.458324E2,3.616177E2,6.271092E1,1.6487999E1,5.9487405E0,1.5018681E1,2.926972E0,4.470383E0,1.611631E0,8.618954E0,1.1218725E1,7.390602E0,4.99149E0,1.0960343E1,1.5388541E0,2.2250212E1,1.29627285E1,3.1150715E0,1.2835511E0,1.4999845E0,1.1920909E0],"tree_param":{"num_deleted":"0","num_feature":"10","num_nodes":"89","size_leaf_vector":"1"}},{"base_weights":[-4.909474E-3,-6.084279E-3,5.0307673E-1,-6.7615224E-4,-1.1661195E-1,9.142467E-1,-2.0581447E-1,-3.2648933E-3,3.465645E-1,-1.4349946E-1,7.670086E-1,3.2076336E-2,5.64747E-1,6.3456562E-3,-6.9524825E-2,4.5032674E-1,-4.3361926E-1,3.566781E-2,-2.5505945E-1,1.249633E0,-7.5117424E-2,-4.4214824E-1,2.3230033E-1,9.6366537E-4,2.1222201E-1,-3.3840165E-3,-2.4048077E-1,5.4506963E-1,-1.1847884E-1,-2.6229122E-1,7.735278E-2,-1.8658216E-1,3.225971E-1,2.6761806E-1,-3.0711466E-1,5.5922097E-1,5.058288E-2,-1.7716973E-1,-2.0593584E-2,8.3445816E-4,-3.1009573E-1,1.6496424E-1,-1.4374492E-1,-1.7448124E-1,4.8729964E-3,-1.3782246E-1,-1.4736724E-2,-5.901462E-2,2.2245611E-1,-3.885695E-3,-1.6992909E-1,1.9591357E-1,-5.1032085E-2,-1.7621313E-1,2.3939496E-1,-1.23651765E-1,1.2210347E-2],"categories":[],"categories_nodes":[],"categories_segments":[],"categories_sizes":[],"default_left":[0,0,0,0,0,0,0,0,0,0,0,0,0,0,0,0,0,0,0,0,0,0,0,0,0,0,0,0,0,0,0,0,0,0,0,0,0,0,0,0,0,0,0,0,0,0,0,0,0,0,0,0,0,0,0,0,0],"id":14,"left_children":[1,3,5,7,9,11,-1,13,15,17,19,21,-1,23,25,27,29,31,33,35,-1,37,-1,39,41,43,45,47,-1,-1,-1,49,51,53,55,-1,-1,-1,-1,-1,-1,-1,-1,-1,-1,-1,-1,-1,-1,-1,-1,-1,-1,-1,-1,-1,-1],"loss_changes":[1.9792292E0,1.9753009E0,4.3687057E0,2.834115E0,3.7724352E0,5.1627035E0,0E0,1.9931132E0,2.0839887E0,3.016098E0,2.6254694E0,1.8267454E0,0E0,3.028869E0,4.4820685E0,1.9036107E0,1.2151986E0,3.7974744E0,2.6080623E0,1.9183531E0,0E0,1.373837E-1,0E0,5.015403E0,1.6520863E1,3.2652268E0,4.6101856E0,2.9696994E0,0E0,0E0,0E0,2.2125497E0,4.3356037E0,4.523885E0,3.1188211E0,0E0,0E0,0E0,0E0,0E0,0E0,0E0,0E0,0E0,0E0,0E0,0E0,0E0,0E0,0E0,0E0,0E0,0E0,0E0,0E0,0E0,0E0],"parents":[2147483647,0,0,1,1,2,2,3,3,4,4,5,5,7,7,8,8,9,9,10,10,11,11,13,13,14,14,15,15,16,16,17,17,18,18,19,19,21,21,23,23,24,24,25,25,26,26,27,27,31,31,32,32,33,33,34,34],"right_children":[2,4,6,8,10,12,-1,14,16,18,20,22,-1,24,26,28,30,32,34,36,-1,38,-1,40,42,44,46,48,-1,-1,-1,50,52,54,56,-1,-1,-1,-1,-1,-1,-1,-1,-1,-1,-1,-1,-1,-1,-1,-1,-1,-1,-1,-1,-1,-1],"split_conditions":[7.5585747E0,2.9200062E-1,7.0673424E-1,3.3966043E0,5.961832E0,-2.696428E-1,-2.0581447E-1,7.9012895E-1,8.7371945E-1,-1.271859E-1,8.6556876E-1,3.554469E-1,5.64747E-1,1.8514596E0,-1.9746038E-1,1.0714022E0,1.5043418E0,8.0284053E-1,-1.0021058E0,9.107215E0,-7.5117424E-2,-9.80085E-2,2.3230033E-1,5.961832E0,1.116318E-1,-9.2056084E-1,1.2222699E0,1.9238839E-1,-1.1847884E-1,-2.6229122E-1,7.735278E-2,-1.1559915E-2,-1.891797E-1,-1.470708E-1,